tree
version=v3
num_class=1
num_tree_per_iteration=1
label_index=0
max_feature_idx=8
objective=regression
feature_names=number_station number_store building_area business_hall paking_area store_area type05 type07 type12
feature_infos=[20:2834] [2:1455] [0:600] [0:200] [0:850] [5:144] [0:378] [3:511] [1:263]
tree_sizes=69684 69166

Tree=0
num_leaves=874
num_cat=0
split_feature=1 5 1 7 0 5 1 1 8 8 8 7 0 8 0 0 0 5 5 1 1 7 1 8 5 0 1 7 0 7 1 0 1 5 0 1 5 0 8 7 0 0 0 7 5 8 1 5 1 8 1 8 0 0 1 7 1 7 7 8 0 8 1 1 8 8 0 1 7 7 0 1 5 8 1 5 1 1 8 0 5 7 0 6 1 0 1 8 0 1 8 1 0 8 7 7 1 5 0 1 1 1 7 8 1 0 0 1 1 0 3 0 0 0 1 0 8 5 5 5 8 0 0 7 5 5 0 8 8 1 1 0 0 0 5 1 1 5 0 0 8 1 7 0 1 1 0 7 7 0 7 1 0 5 0 7 5 0 8 8 0 0 7 0 5 0 7 0 0 0 1 0 7 7 5 1 7 0 0 7 3 1 0 1 7 7 0 1 5 0 0 7 1 3 7 0 6 7 0 1 1 0 1 5 0 1 1 0 8 8 8 1 6 1 1 7 8 1 7 0 0 0 1 0 0 0 0 7 0 1 7 0 1 0 0 7 7 0 1 0 7 0 3 0 1 1 1 0 0 0 1 8 1 0 7 1 6 5 1 0 0 0 1 1 1 0 0 0 0 0 1 1 7 0 8 1 8 0 5 0 8 1 0 8 7 8 0 5 7 5 1 0 0 5 6 5 0 0 8 1 0 1 0 6 0 7 1 7 7 7 1 5 5 8 5 0 0 0 7 0 0 5 8 8 0 1 5 0 0 0 1 5 3 5 5 8 5 1 7 1 0 0 1 0 1 5 7 3 1 3 1 1 5 7 0 0 1 1 0 0 1 1 1 0 5 1 5 1 0 0 1 8 0 6 8 5 1 0 0 1 0 0 0 0 1 5 0 0 1 0 0 1 7 0 1 7 1 0 5 1 5 0 5 1 1 1 0 0 5 5 0 1 7 1 8 8 8 1 8 0 1 0 8 0 0 1 1 7 8 0 0 0 0 5 0 5 0 0 5 0 0 0 1 0 1 1 0 5 7 1 1 7 6 1 0 5 0 0 0 8 8 8 0 8 0 0 3 1 0 0 8 1 1 1 0 0 8 8 0 7 1 0 0 0 1 0 1 0 0 7 5 5 5 5 0 8 0 8 7 0 1 1 0 0 1 1 8 1 0 1 1 8 0 1 0 0 1 0 3 0 8 8 0 0 1 0 0 1 0 1 1 0 1 8 1 0 0 5 7 0 8 1 0 0 0 5 8 1 8 7 0 5 1 0 7 1 7 1 0 1 8 0 7 5 7 6 0 0 7 8 0 1 0 0 1 8 1 0 1 5 8 1 1 6 8 1 1 1 1 1 7 5 8 5 8 8 7 1 5 7 1 0 7 8 7 7 1 5 0 0 0 6 0 1 8 0 0 7 5 7 0 5 0 1 5 0 0 0 1 8 0 0 7 7 0 1 5 1 1 0 0 1 0 3 1 1 1 1 0 7 1 0 5 0 0 7 6 0 0 0 0 8 8 5 5 1 1 0 7 8 0 8 1 7 8 7 8 1 7 0 1 7 1 0 8 5 0 1 1 0 1 0 1 0 0 5 0 1 0 0 0 1 0 0 7 0 8 8 0 8 1 0 1 5 0 0 5 1 7 0 5 0 5 7 7 7 7 8 0 1 1 0 0 5 5 0 0 1 5 3 5 7 1 1 0 0 0 0 1 6 0 0 3 0 8 0 1 0 0 7 0 1 5 1 1 7 1 0 8 8 1 5 1 8 0 1 1 0 0 8 8 5 0 7 0 0 0 0 0 5 1 5 0 5 7 1 1 5 0 5 8 8 7 0 8 8 1 5 0 0 1 1 0 1 0 0 7 0 1 1 0 0 0 5 7 8 1 5 1 0 8 7 0 7 1 8 0 1 3 1 0 0 0 0 8 1 8 5 8 8 1 5 1 3 0 7 0 7 0 0 7 1 0 0 0 5 0 5 8 5 7 8 0
split_gain=2.01518e+08 1.53238e+08 8.96404e+07 5.54625e+07 4.16528e+07 2.50557e+07 1.34332e+07 1.19199e+07 1.05053e+07 5.10744e+06 1.14283e+07 4.37219e+06 6.76653e+06 4.06786e+06 1.18181e+07 3.76025e+06 3.73173e+06 3.7035e+06 6.01287e+06 2.70354e+06 2.67989e+06 2.91585e+06 2.59801e+06 2.53779e+06 2.12457e+06 2.02862e+06 2.80155e+06 2.55438e+06 2.0284e+06 1.87406e+06 1.84814e+06 1.74434e+06 1.65848e+06 1.67809e+06 1.59868e+06 1.76925e+06 1.38608e+06 1.63996e+06 1.39579e+06 1.32404e+06 1.28744e+06 1.14641e+06 1.14523e+06 2.4213e+06 1.05475e+06 1.46626e+06 1.03809e+06 934517 923245 869341 862842 810248 1.09267e+06 3.78637e+06 1.04696e+06 864927 742405 670086 655437 701611 649287 644963 598044 798538 549038 535581 532784 495430 467411 460722 452748 448431 696582 424270 521129 413160 412340 396747 342002 338414 337753 313732 310826 310664 306491 296093 294455 286053 280206 269590 292764 284492 262216 443503 260652 390145 365394 339354 250702 249896 249002 579813 240643 231909 231894 251582 293751 245374 307361 227930 225875 219912 218883 208340 207502 200901 199613 196027 191388 191108 221661 202479 188825 184184 183146 538202 351062 180890 178416 175340 168625 166068 179317 670823 187233 165148 307529 164590 198205 164147 163240 163098 156807 154188 153622 189170 150322 149651 156298 193979 173628 162136 169032 146948 217562 141154 138020 136405 133276 226812 179648 159769 129172 128311 126122 142580 125296 124810 124751 156702 123771 122004 119882 119239 173493 118680 118120 118027 116002 112721 112283 111155 109144 206238 119618 116793 108609 107408 104735 104142 102817 100013 97606.8 134272 94949.6 94718 94146.3 93625.8 89977.6 89248.4 88064 86818.6 93135 83308.7 82209.1 118750 85985.1 81910 81124.8 105513 79875.8 79144.6 79028.8 76385.6 76217.5 75850.7 75810.9 81378.2 147821 148149 124422 137659 73569.3 248079 73462 72027.7 71437.6 148220 68277.9 68083.2 67761.2 85495.3 66432.4 66252.4 65682.4 65452.7 64243.6 64231.6 63644.1 116093 62207.5 62016.3 61985.3 60449.2 60396.9 125486 60321.6 74284.1 151283 72492.8 62385.5 59254.1 58205.5 105810 101765 58158.8 56899.9 56149.3 55220.4 54763.4 54327.7 73732.6 54113.7 68307.8 139779 127350 54083.4 53546.3 52554.3 198261 52105.4 91407.6 51651.5 85695 51262.6 50612.9 50530.9 50510.3 50442.5 76315.2 118866 56800.1 51757.3 82834.7 49034.4 48460.5 47626.9 88169 47417.4 46159.1 45796.8 45750.9 44932.1 44756.1 44353.3 44328.6 44279.1 63277.6 43531.4 43027.4 42995.4 42285.7 42208.2 42094.4 40121.8 70300.6 40053.4 39449.2 38952.7 54959.5 107725 38560.5 59257.9 45238.4 38647.4 38184.7 37964 52799.6 37786.6 37780.8 37503.8 37311.2 36093.2 63556.5 225856 43572.3 41756.4 121818 36007.4 34779.8 55173.2 41142.2 34375.7 34334.8 129385 34290.6 47888.4 34236 33902.8 33418.4 34020.6 32423.4 32313.1 31804.7 30723.9 30428.5 29869.7 29133.9 28715 28688.9 28098.9 43749 70898.3 73262.6 27538.5 27428.8 36084 26729.9 26133.3 26106.5 25603.7 53726.4 25257.7 25065.4 24686.4 24605 25728 27021.5 80641.1 73821.9 24447.6 24339.3 23709.3 23612.4 23501.4 22530.6 51429 22500 22541.1 22116.8 21816.7 21573.5 26304.4 21541.6 21492.3 21066.7 21059.3 20566.5 20058.5 19911.1 19798.6 34538.3 19765.3 19635.3 19056.2 27076.7 18888.7 18719.4 18453 18413.5 18341.2 38033.4 25407.5 18129.1 17977.8 17957.9 17948 52849.4 17771.8 17565.8 16970.7 16936.1 45559.8 29226.7 19010.4 16697.4 16544.6 16520.4 16320.2 27291.9 16096.9 16080.4 16046.9 16004.8 38208.3 15713.6 19335.4 15646.1 30433.6 19686.3 15641.7 15556.5 15427.8 15179.7 14966.9 14775.2 16055.9 14629.7 14484.4 14462.8 14445.5 14396.6 23274.2 14221.9 14073.5 13826.1 13630.3 89445 13371.2 13171.5 12657.2 19084.1 12503.6 16080.1 12480.6 12469.4 15017.3 12385.2 12353.6 12348.2 12342.4 12251 12085.9 12069.1 13406.4 11942.4 11845.5 13349.2 11717 25251.1 11621.7 11607.4 11534.8 11395.5 11325.7 19735.5 11222.6 24188.9 11196.4 11112.8 10945.2 10898.5 10880.3 10877.7 24240 10804.4 16287.1 10745.6 22909.5 10717.1 10237.6 9903.28 9435.56 23949.6 9193.09 9118.52 9025.21 8874.33 8612.43 10910.7 11757.2 8403.42 8402.37 8219.13 8189.13 8177.91 8170.68 8104.97 8082.52 8030.39 7994.83 7975.64 7831.26 7822.04 7784.06 9410.7 7697.14 7687.84 19175.5 7651.2 7316.59 7288.95 7393.8 9129.61 7269.37 7231.17 6875.93 6760.06 6751.39 6666.85 8249.04 6664.51 6642.26 6560.07 6387.95 6349.98 6289.65 6241.23 6235.72 13850.2 6192.62 6086.67 6046.76 5945.36 5804.8 5733.06 5614.12 5568.74 5486.96 5463.33 5433.09 5399.53 5205.77 5194.74 5131.04 6095.41 7731.68 5115.01 5080.98 4932.93 5148.29 4907.52 4840.57 4787.85 7128.9 4766 4600.05 4648.22 4567.91 5957.3 6353.51 4518.32 4517.72 4493.33 4472.5 4410 4301.69 4225.87 4222.93 4196.9 8599.78 4104.97 4087.47 4007.99 3974.05 4646.14 4845.1 3969.07 3967.56 3940.22 3875.25 3853.26 3754.02 3721.89 3692.04 3587.13 3535.8 3405.01 3379.79 4527.35 3650.89 3342.35 3335.7 7048.28 3333.99 5946.94 3331.84 3647.05 3290.83 3243.94 3240.63 3166.43 3152.83 3121.9 3111.73 4440.15 5872.29 3110.5 3104.7 6882.98 10886.3 3849.03 3060.82 3050.95 3050.09 3341.9 3034.72 3025.05 2984.81 2968.14 2865.67 2841.8 2798.41 2790.04 2739.02 2717.5 2679.43 2666.24 2646.24 2645.46 2574.93 2551.81 2529.77 2466.6 2719.48 2406.12 3921.76 4400.76 3330.38 2404.27 2403.54 2396.94 2386.07 2385.77 2306.91 2293.52 2242.68 2240.97 2223.59 2185.74 2160.38 2148.99 2905.81 2132.16 2110.3 2291.68 2870.3 2086.8 2082.79 2887.23 2665.94 2874.79 2597.24 3574.08 2940.54 2020.21 2019.4 1944.47 1909.62 1881.07 1849.6 1835.3 1826.88 1805.28 1768.28 1737.53 1690 1674.86 1652.62 1637.99 1604.82 1549.69 1537.82 1492.16 1481.07 1416.02 1359.49 1699.28 2427.25 1348.02 1341.22 1293.37 1272.2 1254.99 1171.83 1556.11 1164.46 1159.74 1159.59 1146.2 1122.97 1118.89 1167.66 1079.88 1067.77 1052.7 1046.48 1044.51 1035.93 1023 1017.25 1784.48 1140.6 1742.61 1559.92 1298.39 1880.89 2314.19 1012.62 1009.26 1000.17 989.634 974.584 2255.29 1030.9 949.701 943.568 2067.49 931.079 918.205 917.006 912.521 899.447 877.714 849.516 839.579 837.607 808.867 794.956 782.811 764.572 763.846 731.964 982.668 723.769 721.029 697.225 695.775 901.333 685.798 672.291 665.029 657.933 632.025 621.219 616.081 608.554 608.303 929.529 1335.92 1067.08 602.083 587.532 544.818 536.963 533.528 508.894 512.844 502.91 745.096 475.776 474.113 472.386 465.271 453.27 431.513 392.233 389.404 371.032 576.783 362.704 344.143 338.129 334.024 316.268 311.273 298.449 288.807 269.74 266.068 265.453 257.154 303.2 255.208 251.488 244.833 243.712 239.445 605.015 234.403 230.094 218.453 215.498 232.922 213.078 211.876 672.4 199.623 195.457 579.688 192.08 185.786 235.917 185.37 184.161 369.606 181.158 173.94 172.85 168.089 166.546 164.502 156.381 152.969 146.386 254.317 140.465 140.431 135.61 134.971 134.761 126.001 122.644 112.686 110.951 107.547 105.613 105.188 101.137 89.7241 86.9862 83.8755 70.5333 115.36 60.8439 57.6 56.4566 52.374 40.8742 40.582 34.4322 30.625 30.0605 22.4181 30.9172 20.7668 16.5586 15.9942 14.6559 10.5274 7.05333 0.025 5.96046e-08
threshold=548.50000000000011 54.500000000000007 214.50000000000003 386.50000000000006 435.50000000000006 65.500000000000014 148.50000000000003 370.50000000000006 218.50000000000003 151.50000000000003 165.00000000000003 268.50000000000006 937.50000000000011 158.00000000000003 868.50000000000011 1613.5000000000002 993.50000000000011 45.500000000000007 39.500000000000007 94.500000000000014 255.50000000000003 350.50000000000006 290.50000000000006 107.50000000000001 39.500000000000007 1105.5000000000002 313.50000000000006 398.50000000000006 819.50000000000011 205.50000000000003 324.50000000000006 1142.5000000000002 677.50000000000011 69.500000000000014 680.50000000000011 303.50000000000006 110.50000000000001 1480.5000000000002 91.500000000000014 356.00000000000006 1902.0000000000002 714.50000000000011 921.50000000000011 369.50000000000006 49.000000000000007 145.00000000000003 165.50000000000003 47.750000000000007 358.50000000000006 165.00000000000003 188.50000000000003 83.000000000000014 1179.5000000000002 1271.5000000000002 352.50000000000006 318.00000000000006 383.50000000000006 349.00000000000006 366.50000000000006 111.00000000000001 559.50000000000011 165.00000000000003 349.50000000000006 317.50000000000006 107.50000000000001 48.500000000000007 1222.5000000000002 62.500000000000007 385.50000000000006 412.00000000000006 1157.5000000000002 470.50000000000006 39.500000000000007 108.50000000000001 292.50000000000006 20.500000000000004 383.50000000000006 121.50000000000001 83.000000000000014 763.50000000000011 39.500000000000007 203.00000000000003 1105.5000000000002 347.00000000000006 280.50000000000006 1013.5000000000001 222.50000000000003 135.00000000000003 738.50000000000011 303.50000000000006 168.50000000000003 321.50000000000006 1167.5000000000002 168.50000000000003 417.50000000000006 398.50000000000006 182.50000000000003 59.500000000000007 950.50000000000011 782.00000000000011 178.50000000000003 182.50000000000003 298.50000000000006 111.00000000000001 226.50000000000003 1142.5000000000002 1222.5000000000002 244.50000000000003 240.50000000000003 745.50000000000011 25.000000000000004 1334.5000000000002 721.50000000000011 1480.5000000000002 470.50000000000006 741.50000000000011 145.00000000000003 70.520000000000024 29.000000000000004 67.250000000000014 137.50000000000003 1105.5000000000002 435.50000000000006 366.50000000000006 71.720000000000013 49.000000000000007 878.50000000000011 139.50000000000003 91.500000000000014 349.50000000000006 478.50000000000006 586.50000000000011 839.50000000000011 878.50000000000011 44.500000000000007 823.50000000000011 610.50000000000011 49.000000000000007 873.50000000000011 680.50000000000011 119.50000000000001 261.50000000000006 365.00000000000006 1142.5000000000002 202.50000000000003 191.50000000000003 684.50000000000011 429.50000000000006 398.50000000000006 629.50000000000011 318.00000000000006 290.50000000000006 657.50000000000011 39.500000000000007 575.50000000000011 435.50000000000006 88.000000000000014 732.50000000000011 5.5000000000000009 18.500000000000004 927.50000000000011 1377.0000000000002 365.00000000000006 1347.5000000000002 59.500000000000007 768.50000000000011 341.00000000000006 1388.5000000000002 1388.5000000000002 1334.5000000000002 394.50000000000006 357.50000000000006 386.50000000000006 304.50000000000006 69.500000000000014 270.50000000000006 358.50000000000006 1234.5000000000002 597.50000000000011 415.00000000000006 39.000000000000007 259.50000000000006 646.50000000000011 123.50000000000001 349.00000000000006 336.50000000000006 1363.5000000000002 426.50000000000006 55.500000000000007 654.50000000000011 969.50000000000011 405.50000000000006 41.500000000000007 70.000000000000014 382.00000000000006 1480.5000000000002 313.50000000000006 390.00000000000006 860.50000000000011 460.50000000000006 296.50000000000006 976.50000000000011 200.50000000000003 47.750000000000007 480.50000000000006 156.50000000000003 161.50000000000003 803.50000000000011 61.500000000000007 63.500000000000007 92.500000000000014 338.50000000000006 347.00000000000006 192.50000000000003 228.50000000000003 285.50000000000006 168.50000000000003 172.50000000000003 352.50000000000006 735.50000000000011 718.50000000000011 729.50000000000011 97.500000000000014 575.50000000000011 424.50000000000006 729.50000000000011 1044.5000000000002 345.50000000000006 1052.5000000000002 268.50000000000006 336.50000000000006 670.50000000000011 168.50000000000003 1334.5000000000002 670.50000000000011 417.50000000000006 161.00000000000003 976.50000000000011 394.50000000000006 943.50000000000011 386.50000000000006 1197.5000000000002 25.000000000000004 470.50000000000006 182.50000000000003 190.50000000000003 334.50000000000006 865.50000000000011 921.50000000000011 800.50000000000011 305.50000000000006 175.50000000000003 224.50000000000003 1457.5000000000002 365.00000000000006 250.50000000000003 347.00000000000006 68.250000000000014 478.50000000000006 292.50000000000006 781.50000000000011 830.50000000000011 338.50000000000006 305.50000000000006 294.50000000000006 868.50000000000011 334.50000000000006 268.50000000000006 878.50000000000011 800.50000000000011 114.50000000000001 116.50000000000001 345.50000000000006 321.50000000000006 93.500000000000014 224.50000000000003 139.50000000000003 532.50000000000011 53.000000000000007 444.50000000000006 94.500000000000014 76.500000000000014 520.50000000000011 13.500000000000002 435.50000000000006 191.00000000000003 1087.5000000000002 88.000000000000014 353.50000000000006 54.500000000000007 130.50000000000003 873.50000000000011 1334.5000000000002 88.000000000000014 147.00000000000003 20.500000000000004 976.50000000000011 916.50000000000011 165.00000000000003 167.50000000000003 664.50000000000011 209.50000000000003 955.50000000000011 347.00000000000006 772.50000000000011 138.50000000000003 235.50000000000003 302.50000000000006 279.50000000000006 373.00000000000006 129.50000000000003 69.500000000000014 59.500000000000007 137.50000000000003 27.500000000000004 714.50000000000011 883.50000000000011 847.50000000000011 285.50000000000006 391.50000000000006 664.50000000000011 67.250000000000014 70.500000000000014 91.500000000000014 847.50000000000011 123.50000000000001 67.250000000000014 921.50000000000011 330.50000000000006 843.50000000000011 136.50000000000003 59.500000000000007 41.000000000000007 54.500000000000007 47.750000000000007 85.500000000000014 47.750000000000007 230.50000000000003 161.00000000000003 252.50000000000003 593.50000000000011 611.50000000000011 194.50000000000003 383.50000000000006 299.50000000000006 67.250000000000014 352.50000000000006 70.000000000000014 292.50000000000006 48.760000000000012 69.500000000000014 71.500000000000014 71.720000000000013 358.50000000000006 396.50000000000006 559.50000000000011 156.50000000000003 200.50000000000003 661.50000000000011 234.50000000000003 174.50000000000003 164.50000000000003 176.50000000000003 868.50000000000011 32.500000000000007 252.50000000000003 59.500000000000007 294.50000000000006 819.50000000000011 834.50000000000011 334.50000000000006 165.00000000000003 955.50000000000011 261.00000000000006 84.500000000000014 71.720000000000013 182.50000000000003 691.50000000000011 611.50000000000011 268.50000000000006 638.50000000000011 772.50000000000011 597.50000000000011 1377.0000000000002 272.50000000000006 39.500000000000007 301.50000000000006 800.50000000000011 309.50000000000006 768.50000000000011 856.50000000000011 305.50000000000006 345.50000000000006 466.50000000000006 174.50000000000003 336.50000000000006 111.50000000000001 777.50000000000011 60.750000000000007 110.50000000000001 59.500000000000007 520.50000000000011 46.900000000000006 112.50000000000001 164.50000000000003 176.50000000000003 245.50000000000003 263.50000000000006 40.250000000000007 59.500000000000007 745.50000000000011 80.500000000000014 366.50000000000006 75.500000000000014 99.000000000000014 83.000000000000014 64.500000000000014 138.50000000000003 87.000000000000014 391.50000000000006 277.50000000000006 1292.5000000000002 131.50000000000003 366.50000000000006 439.50000000000006 244.50000000000003 226.50000000000003 39.000000000000007 18.500000000000004 725.50000000000011 646.50000000000011 396.50000000000006 492.50000000000006 59.500000000000007 258.50000000000006 55.500000000000007 411.50000000000006 777.50000000000011 39.500000000000007 851.50000000000011 1281.5000000000002 419.50000000000006 172.50000000000003 969.50000000000011 140.50000000000003 478.50000000000006 78.500000000000014 21.500000000000004 76.000000000000014 265.50000000000006 161.50000000000003 198.50000000000003 261.00000000000006 131.50000000000003 1281.5000000000002 44.500000000000007 325.50000000000006 860.50000000000011 579.50000000000011 41.500000000000007 151.50000000000003 122.50000000000001 317.50000000000006 172.00000000000003 687.50000000000011 851.50000000000011 55.000000000000007 33.500000000000007 674.50000000000011 710.50000000000011 168.50000000000003 141.50000000000003 321.50000000000006 66.500000000000014 684.50000000000011 600.50000000000011 85.500000000000014 87.000000000000014 830.50000000000011 375.50000000000006 491.50000000000006 582.50000000000011 325.50000000000006 529.50000000000011 174.50000000000003 860.50000000000011 317.50000000000006 1020.5000000000001 749.50000000000011 382.00000000000006 38.500000000000007 54.500000000000007 59.500000000000007 53.000000000000007 629.50000000000011 165.00000000000003 586.50000000000011 174.50000000000003 37.500000000000007 132.50000000000003 52.500000000000007 275.50000000000006 579.50000000000011 847.50000000000011 82.500000000000014 86.500000000000014 145.00000000000003 111.50000000000001 792.50000000000011 113.50000000000001 115.50000000000001 141.50000000000003 916.50000000000011 71.500000000000014 784.50000000000011 826.50000000000011 182.50000000000003 788.50000000000011 37.000000000000007 512.50000000000011 165.00000000000003 122.50000000000001 516.50000000000011 419.50000000000006 123.50000000000001 819.50000000000011 674.50000000000011 106.50000000000001 969.50000000000011 180.50000000000003 168.50000000000003 650.50000000000011 174.50000000000003 96.000000000000014 136.50000000000003 317.50000000000006 847.50000000000011 35.500000000000007 390.00000000000006 439.50000000000006 84.500000000000014 112.50000000000001 189.50000000000003 614.50000000000011 1001.5000000000001 37.500000000000007 141.50000000000003 103.50000000000001 179.50000000000003 341.00000000000006 878.50000000000011 68.250000000000014 82.500000000000014 113.50000000000001 308.00000000000006 59.500000000000007 47.500000000000007 75.500000000000014 575.50000000000011 50.500000000000007 119.50000000000001 987.50000000000011 39.000000000000007 44.500000000000007 382.00000000000006 261.00000000000006 593.50000000000011 435.50000000000006 377.50000000000006 85.500000000000014 548.50000000000011 106.50000000000001 868.50000000000011 664.50000000000011 184.50000000000003 135.00000000000003 26.500000000000004 352.50000000000006 178.50000000000003 27.500000000000004 63.500000000000007 57.500000000000007 263.50000000000006 277.00000000000006 13.500000000000002 56.500000000000007 54.500000000000007 334.50000000000006 133.50000000000003 161.50000000000003 455.00000000000006 16.500000000000004 13.500000000000002 66.500000000000014 50.000000000000007 40.500000000000007 350.50000000000006 80.500000000000014 53.000000000000007 412.00000000000006 56.500000000000007 189.50000000000003 345.50000000000006 124.00000000000001 147.50000000000003 178.00000000000003 81.500000000000014 41.250000000000007 508.50000000000006 760.50000000000011 500.50000000000006 295.50000000000006 900.50000000000011 75.500000000000014 115.00000000000001 687.50000000000011 777.50000000000011 349.00000000000006 49.000000000000007 256.00000000000006 548.50000000000011 47.750000000000007 563.50000000000011 101.50000000000001 59.500000000000007 586.50000000000011 826.50000000000011 819.50000000000011 317.50000000000006 168.50000000000003 278.50000000000006 529.50000000000011 261.50000000000006 88.500000000000014 1245.5000000000002 184.50000000000003 88.000000000000014 127.50000000000001 49.500000000000007 654.50000000000011 283.50000000000006 138.50000000000003 508.50000000000006 1.0000000180025095e-35 66.500000000000014 101.50000000000001 107.50000000000001 113.50000000000001 680.50000000000011 358.50000000000006 74.500000000000014 1134.5000000000002 62.000000000000007 677.50000000000011 607.50000000000011 312.00000000000006 147.00000000000003 273.50000000000006 387.50000000000006 383.50000000000006 721.50000000000011 108.50000000000001 118.00000000000001 27.500000000000004 70.520000000000024 72.500000000000014 76.500000000000014 729.50000000000011 47.500000000000007 50.000000000000007 194.50000000000003 122.50000000000001 47.500000000000007 313.50000000000006 63.500000000000007 117.00000000000001 50.000000000000007 610.50000000000011 423.50000000000006 263.50000000000006 280.50000000000006 205.50000000000003 191.50000000000003 177.50000000000003 108.50000000000001 53.000000000000007 680.50000000000011 261.50000000000006 131.50000000000003 568.50000000000011 131.50000000000003 500.50000000000006 104.50000000000001 626.50000000000011 1197.5000000000002 39.500000000000007 516.50000000000011 69.500000000000014 480.50000000000006 642.50000000000011 604.50000000000011 78.500000000000014 706.50000000000011 738.50000000000011 398.50000000000006 444.50000000000006 122.50000000000001 84.500000000000014 219.50000000000003 111.00000000000001 123.50000000000001 330.50000000000006 46.500000000000007 41.250000000000007 245.50000000000003 374.50000000000006 59.500000000000007 107.50000000000001 29.000000000000004 470.50000000000006 71.240000000000023 208.50000000000003 37.500000000000007 39.000000000000007 76.000000000000014 398.50000000000006 42.000000000000007 15.000000000000002 650.50000000000011 59.500000000000007 24.500000000000004 586.50000000000011 435.50000000000006 45.500000000000007 40.250000000000007 618.50000000000011 680.50000000000011 167.50000000000003 38.500000000000007 25.000000000000004 41.250000000000007 412.00000000000006 74.500000000000014 66.500000000000014 508.50000000000006 120.50000000000001 614.50000000000011 219.50000000000003 70.500000000000014 277.00000000000006 614.50000000000011 292.50000000000006 34.500000000000007 551.50000000000011 23.000000000000004 253.50000000000003 104.50000000000001 544.50000000000011 788.50000000000011 20.000000000000004 579.50000000000011 115.50000000000001 69.500000000000014 158.50000000000003 99.500000000000014 151.00000000000003 129.50000000000003 169.50000000000003 21.000000000000004 15.000000000000002 20.500000000000004 69.500000000000014 52.500000000000007 45.000000000000007 177.50000000000003 248.50000000000003 31.500000000000004 163.50000000000003 424.50000000000006 23.000000000000004 122.50000000000001 49.000000000000007 224.50000000000003 203.00000000000003 292.50000000000006 626.50000000000011 819.50000000000011 674.50000000000011 292.50000000000006 29.000000000000004 72.500000000000014 69.500000000000014 145.50000000000003 68.250000000000014 393.50000000000006 76.500000000000014 137.50000000000003 35.500000000000007 273.50000000000006 53.000000000000007 63.500000000000007 19.500000000000004 410.50000000000006 411.50000000000006 92.500000000000014 92.500000000000014 104.50000000000001 47.250000000000007 229.50000000000003 411.50000000000006 108.50000000000001 123.50000000000001 105.50000000000001 22.500000000000004 348.50000000000006 348.50000000000006 39.000000000000007 370.50000000000006 37.500000000000007 39.500000000000007 548.50000000000011 752.50000000000011 677.50000000000011 44.500000000000007 261.50000000000006 64.500000000000014 44.500000000000007 46.900000000000006 89.500000000000014 138.50000000000003 41.500000000000007 373.00000000000006 544.50000000000011 302.50000000000006 77.500000000000014 149.50000000000003 508.50000000000006 31.500000000000004 32.500000000000007 46.500000000000007 201.50000000000003 208.50000000000003 396.50000000000006 1087.5000000000002 92.500000000000014 37.500000000000007 62.500000000000007 12.500000000000002 3.5000000000000004 87.000000000000014 30.500000000000004 60.750000000000007 16.500000000000004 25.000000000000004 508.50000000000006 412.00000000000006 383.50000000000006 106.00000000000001 273.50000000000006 145.50000000000003 47.500000000000007 77.500000000000014 301.50000000000006 234.50000000000003 201.50000000000003 19.500000000000004 138.50000000000003 19.500000000000004 13.500000000000002 39.500000000000007 39.000000000000007 23.000000000000004 993.50000000000011
decision_type=2 2 2 2 2 2 2 2 2 2 2 2 2 2 2 2 2 2 2 2 2 2 2 2 2 2 2 2 2 2 2 2 2 2 2 2 2 2 2 2 2 2 2 2 2 2 2 2 2 2 2 2 2 2 2 2 2 2 2 2 2 2 2 2 2 2 2 2 2 2 2 2 2 2 2 2 2 2 2 2 2 2 2 2 2 2 2 2 2 2 2 2 2 2 2 2 2 2 2 2 2 2 2 2 2 2 2 2 2 2 2 2 2 2 2 2 2 2 2 2 2 2 2 2 2 2 2 2 2 2 2 2 2 2 2 2 2 2 2 2 2 2 2 2 2 2 2 2 2 2 2 2 2 2 2 2 2 2 2 2 2 2 2 2 2 2 2 2 2 2 2 2 2 2 2 2 2 2 2 2 2 2 2 2 2 2 2 2 2 2 2 2 2 2 2 2 2 2 2 2 2 2 2 2 2 2 2 2 2 2 2 2 2 2 2 2 2 2 2 2 2 2 2 2 2 2 2 2 2 2 2 2 2 2 2 2 2 2 2 2 2 2 2 2 2 2 2 2 2 2 2 2 2 2 2 2 2 2 2 2 2 2 2 2 2 2 2 2 2 2 2 2 2 2 2 2 2 2 2 2 2 2 2 2 2 2 2 2 2 2 2 2 2 2 2 2 2 2 2 2 2 2 2 2 2 2 2 2 2 2 2 2 2 2 2 2 2 2 2 2 2 2 2 2 2 2 2 2 2 2 2 2 2 2 2 2 2 2 2 2 2 2 2 2 2 2 2 2 2 2 2 2 2 2 2 2 2 2 2 2 2 2 2 2 2 2 2 2 2 2 2 2 2 2 2 2 2 2 2 2 2 2 2 2 2 2 2 2 2 2 2 2 2 2 2 2 2 2 2 2 2 2 2 2 2 2 2 2 2 2 2 2 2 2 2 2 2 2 2 2 2 2 2 2 2 2 2 2 2 2 2 2 2 2 2 2 2 2 2 2 2 2 2 2 2 2 2 2 2 2 2 2 2 2 2 2 2 2 2 2 2 2 2 2 2 2 2 2 2 2 2 2 2 2 2 2 2 2 2 2 2 2 2 2 2 2 2 2 2 2 2 2 2 2 2 2 2 2 2 2 2 2 2 2 2 2 2 2 2 2 2 2 2 2 2 2 2 2 2 2 2 2 2 2 2 2 2 2 2 2 2 2 2 2 2 2 2 2 2 2 2 2 2 2 2 2 2 2 2 2 2 2 2 2 2 2 2 2 2 2 2 2 2 2 2 2 2 2 2 2 2 2 2 2 2 2 2 2 2 2 2 2 2 2 2 2 2 2 2 2 2 2 2 2 2 2 2 2 2 2 2 2 2 2 2 2 2 2 2 2 2 2 2 2 2 2 2 2 2 2 2 2 2 2 2 2 2 2 2 2 2 2 2 2 2 2 2 2 2 2 2 2 2 2 2 2 2 2 2 2 2 2 2 2 2 2 2 2 2 2 2 2 2 2 2 2 2 2 2 2 2 2 2 2 2 2 2 2 2 2 2 2 2 2 2 2 2 2 2 2 2 2 2 2 2 2 2 2 2 2 2 2 2 2 2 2 2 2 2 2 2 2 2 2 2 2 2 2 2 2 2 2 2 2 2 2 2 2 2 2 2 2 2 2 2 2 2 2 2 2 2 2 2 2 2 2 2 2 2 2 2 2 2 2 2 2 2 2 2 2 2 2 2 2 2 2 2 2 2 2 2 2 2 2 2 2 2 2 2 2 2 2 2 2 2 2 2 2 2 2 2 2 2 2 2 2 2 2 2 2 2 2 2 2 2 2 2 2 2 2 2 2 2 2 2 2 2 2 2 2 2 2 2 2 2 2 2 2 2 2 2 2 2 2 2 2 2 2 2 2 2 2 2 2 2 2 2 2 2 2 2 2 2 2 2 2 2 2 2 2 2 2 2 2 2 2 2 2 2 2 2 2 2
left_child=2 3 6 13 5 -4 19 16 9 36 11 76 -13 872 677 32 17 18 48 67 64 51 60 158 -23 -26 73 30 29 80 -28 -14 128 -34 -24 -36 38 56 155 57 135 147 43 46 203 58 -41 71 75 62 -48 52 344 66 89 -56 -38 61 59 175 337 82 63 -37 78 267 -54 192 167 83 85 72 98 74 186 191 -11 122 104 -74 115 103 124 119 -55 199 -47 256 -61 92 91 177 93 -53 95 123 97 -97 -12 454 190 -102 131 198 293 549 -107 108 306 200 117 299 -99 233 170 -25 127 164 181 120 121 137 188 153 125 232 -127 228 163 -32 421 -62 134 -134 229 136 -17 -40 157 -136 -93 -7 187 -118 145 300 588 148 150 -150 151 173 341 178 354 172 168 234 160 537 -8 166 176 286 165 -90 213 -35 169 -86 -78 208 195 214 -175 536 222 -91 -31 204 284 189 285 -184 185 315 -27 -140 197 -77 -44 389 446 373 275 258 544 224 277 439 -60 -103 292 260 328 -206 -207 -64 492 -210 296 -65 320 321 652 528 217 230 220 -220 298 -222 223 -124 272 -178 -130 -228 -66 -133 231 -156 -30 -101 -139 715 270 291 -122 -240 -163 301 -159 -125 487 -246 247 249 -249 250 304 335 -230 254 -254 457 294 -192 440 679 501 -262 263 264 265 -257 -261 364 269 -172 289 -272 273 295 396 -80 303 -79 279 280 476 431 435 398 370 308 -3 651 392 571 550 -234 -203 -18 322 -67 297 437 494 -84 -82 357 -144 408 305 -120 -108 -297 -89 310 -310 312 314 519 610 686 317 -59 363 399 379 338 538 324 325 -324 327 400 -168 330 -292 -331 460 334 463 416 359 -20 355 340 -216 -153 -223 -283 -22 -94 -312 535 377 444 700 -352 353 505 -155 448 -357 459 -342 683 361 -217 -162 371 -21 572 508 369 -369 609 449 -317 -126 386 688 578 589 378 -193 425 -300 382 -218 -277 -347 632 498 -383 -171 -6 391 -205 -232 -316 395 432 547 -379 -284 482 402 -402 423 -336 -384 -302 -195 -408 458 517 699 413 639 -355 -414 -247 513 -258 419 -376 775 -121 -345 690 -425 426 -152 429 474 592 -415 -282 -356 -98 -349 436 -280 483 -148 -58 -9 442 763 503 531 -157 447 -1 -161 -111 451 -340 -311 -454 -70 456 473 -167 706 -215 489 -396 557 786 -465 -264 511 730 516 -470 -225 -365 -350 -361 475 -429 490 -478 -466 -332 -116 687 -276 -181 -485 486 -391 488 -208 613 562 650 493 504 -219 682 -291 828 759 553 579 -43 -426 -328 542 624 664 568 -367 623 627 576 -267 743 -451 -516 -406 518 -358 -314 574 522 523 -404 601 -320 -341 -268 -63 530 -242 -279 -452 -524 -431 678 -46 642 539 -83 820 764 -69 565 -49 -515 552 -274 -513 -106 -186 795 657 -500 555 556 -502 -457 -534 685 584 -212 -173 -512 -565 -462 567 -96 757 660 -571 -224 -88 -545 -318 -433 749 -375 -245 580 865 617 -380 591 585 586 658 680 -105 -377 -540 837 641 681 -558 778 843 -436 663 600 -600 -366 -556 630 633 -606 790 -608 -397 -368 -164 614 -227 696 615 622 -617 -562 619 744 -621 -622 -542 675 750 -626 703 -509 -263 649 707 -287 -275 689 -541 736 -531 746 -555 -413 668 691 -160 644 -544 -335 -647 648 -648 -583 -418 -288 -19 -521 -305 -362 702 -475 -561 -564 -570 849 -663 -597 665 709 -667 -649 -581 747 -671 672 674 -674 -672 -430 -438 -15 -338 -237 -381 -507 -463 -337 731 711 -185 -176 -327 -511 -325 -269 -484 -624 -301 -506 697 738 -699 -183 -285 798 -313 -575 719 -706 -238 -604 -685 855 -635 712 -388 830 -596 -199 -687 -387 811 803 722 -722 723 838 -725 726 727 807 -296 732 -468 -572 734 -734 817 -149 737 -539 -281 -580 -625 784 -646 -211 797 -726 791 -670 -715 767 -353 -548 753 -746 -742 -675 -612 -395 -759 772 836 -748 -743 -330 -190 814 -525 799 769 823 -771 -601 782 -755 792 -322 844 -778 779 -586 824 -642 859 871 -727 -664 -278 -733 789 -779 842 -594 -253 -718 818 -508 -523 -615 -494 801 -785 827 812 -668 -791 -802 -658 808 -724 -731 -787 -693 846 829 860 -587 -817 -665 833 -820 -491 822 -762 840 839 -826 -676 847 834 -814 -698 857 -712 850 -354 -836 -620 -578 858 856 -769 -605 -492 -445 -747 851 -803 -448 -801 -410 -767 -809 870 867 -780 -437 -713 -449 -593 -194 -728 -661 863 864 -862 -501 -829 -854 -850 -810 -849 -770 -2
right_child=1 15 4 -5 7 141 23 8 -10 10 47 12 31 14 -16 40 20 41 22 65 21 24 34 28 25 26 27 -29 39 94 129 -33 33 68 35 49 37 -39 69 42 -42 44 100 -45 45 86 50 196 -50 -51 -52 54 53 84 55 -57 70 316 109 88 102 215 207 211 116 77 -68 171 99 -71 -72 -73 79 -75 -76 118 114 81 194 -81 144 87 111 -85 156 -87 365 182 110 90 -92 140 345 -95 566 96 433 112 -100 113 101 201 -104 146 105 106 107 -109 -110 180 -112 -113 -114 -115 480 -117 143 -119 246 130 238 -123 162 243 372 126 -128 -129 226 -131 -132 132 133 -135 139 -137 -138 138 142 -141 -142 -143 302 -145 -146 -147 438 735 149 -151 212 152 -154 154 216 445 -158 242 159 161 362 240 311 -165 -166 255 179 -169 -170 388 268 278 -174 174 481 -177 225 -179 -180 210 -182 410 183 184 290 -187 -188 -189 541 -191 257 348 193 406 -196 -197 -198 235 -200 -201 -202 202 -204 390 205 206 244 -209 209 251 561 -213 -214 241 339 360 381 218 219 -221 221 342 236 470 -226 612 227 -229 252 -231 288 -233 237 -235 -236 259 276 -239 239 -241 529 -243 -244 375 245 415 -248 248 -250 -251 -252 774 253 -255 -256 262 417 -259 -260 266 261 628 465 -265 -266 512 527 427 -270 -271 271 -273 274 385 319 383 333 349 282 332 281 343 283 350 -286 631 287 -289 -290 496 329 -293 -294 -295 728 307 -298 -299 380 694 405 -303 -304 654 -306 -307 -308 -309 309 452 346 656 313 -315 393 318 520 -319 525 -321 420 -323 323 326 -326 374 443 -329 441 331 479 -333 -334 645 403 336 347 -339 450 526 358 -343 -344 422 -346 384 -348 434 472 -351 351 352 497 411 394 356 409 -359 -360 455 655 -363 -364 471 524 366 367 368 -370 -371 -372 -373 -374 577 418 376 -378 397 582 587 -382 387 404 -385 -386 717 559 -389 -390 485 -392 -393 -394 507 461 608 -398 -399 -400 -401 401 -403 521 -405 468 -407 407 -409 661 -411 -412 412 414 430 -416 -417 491 -419 -420 -421 -422 -423 -424 424 502 -427 -428 428 509 534 -432 575 -434 -435 597 506 676 -439 -440 -441 -442 -443 -444 596 -446 -447 466 831 -450 514 532 -453 453 -455 -456 462 -458 -459 -460 -461 543 495 -464 464 478 -467 467 -469 469 -471 -472 -473 -474 546 -476 -477 477 -479 -480 -481 -482 -483 692 484 -486 -487 -488 -489 -490 540 606 -493 701 -495 -496 -497 -498 -499 499 500 554 -503 -504 -505 695 593 551 510 -510 604 563 548 -514 545 515 -517 -518 -519 -520 653 -522 796 533 766 -526 -527 -528 -529 -530 636 -532 -533 558 -535 -536 -537 -538 635 590 634 611 -543 643 573 -546 -547 751 -549 -550 -551 -552 -553 -554 638 602 -557 594 -559 -560 560 581 -563 659 564 -566 -567 -568 -569 569 570 684 -573 -574 626 -576 -577 583 -579 739 640 -582 629 -584 -585 595 815 -588 -589 -590 -591 -592 720 637 -595 714 598 -598 -599 599 771 -602 -603 603 841 605 -607 607 -609 -610 -611 756 -613 -614 618 -616 616 -618 -619 760 620 621 -623 693 740 625 -627 -628 -629 -630 -631 -632 -633 -634 710 -636 -637 -638 -639 -640 -641 781 -643 -644 -645 742 646 647 667 -650 -651 -652 -653 -654 -655 -656 -657 806 -659 -660 861 -662 662 785 729 -666 666 704 -669 669 670 671 -673 673 755 826 -677 -678 -679 -680 -681 -682 -683 -684 708 -686 716 -688 -689 -690 -691 -692 718 -694 -695 -696 -697 713 698 -700 -701 -702 -703 -704 -705 705 -707 -708 -709 -710 -711 832 780 -714 748 -716 -717 793 -719 -720 -721 721 -723 725 724 745 741 765 -729 -730 809 -732 787 733 -735 -736 -737 -738 -739 -740 -741 754 762 -744 -745 752 776 761 -749 -750 -751 -752 -753 -754 773 -756 -757 -758 758 -760 -761 821 -763 -764 -765 -766 794 -768 768 783 770 -772 -773 -774 -775 -776 -777 777 788 854 -781 -782 -783 -784 800 -786 810 -788 -789 -790 804 -792 -793 -794 -795 -796 -797 -798 -799 -800 848 805 802 -804 -805 -806 -807 -808 845 869 -811 -812 -813 813 -815 -816 816 -818 -819 819 -821 -822 -823 -824 -825 825 -827 -828 866 -830 -831 -832 -833 -834 -835 835 -837 -838 -839 -840 -841 -842 -843 -844 -845 -846 -847 -848 852 868 -851 -852 -853 853 -855 -856 -857 -858 -859 -860 -861 862 -863 -864 -865 -866 -867 -868 -869 -870 -871 -872 -873 -874
leaf_value=102.51698640484179 241.80106412382531 116.28286158983848 103.08048070311725 101.95362388879047 99.605083875638996 229.73362850955732 110.5508103529237 103.7783161924894 180.2203986077667 121.67571834876603 106.11738546445434 210.20043553107408 160.88870125512776 240.46598721952844 148.48491200895717 139.31857518281436 101.64119497218007 98.849528326706178 102.08952830763269 102.15407376607953 105.22680095427658 99.972605242447145 108.81619491231052 101.13286163531461 155.89616551344534 104.53501212384107 174.64275128086587 112.02452800086745 116.28286140572635 114.56143281159125 132.50407350381909 123.41257129495861 153.05212817004929 119.04296400399613 157.88437975305084 121.70905173659503 136.27246530374586 145.57469265841482 110.50337432649724 148.99234827525581 160.27152753324913 99.58167117533408 112.7456822255872 102.13736613458059 102.27225558209392 114.94952791066575 110.22996301394744 100.27765332074571 122.80235558571835 114.08918313080437 135.30835095012733 122.00429015880718 137.06249044195863 106.74006868939934 140.01403328844657 112.22452812007674 119.51345940508719 100.47571879551703 115.84817674080249 107.25541058988976 126.87778863235962 106.50223097657016 128.71257124105529 148.66352713652063 109.6995282386747 99.79595687769887 158.02680015232318 98.336565363743205 119.54952809464542 104.01332129861316 127.22952847929406 105.70309974165369 120.96039768460307 128.05470068788276 123.58110726529075 111.52175056835509 140.92996320882872 105.83762351030573 107.62752831907677 138.30861868093203 119.14468961087601 100.95170222938363 101.47645138528935 128.89476631295292 111.91875887585826 103.26909352336543 101.15952829173811 98.502754130081414 121.77520391990191 125.99476613130066 104.06063939013357 104.24397275702211 104.8256152790815 102.29152831907678 98.346896747758805 105.98188115533505 104.31381401919361 126.30407385060977 118.65907053674381 137.69460534544396 127.22197790311937 104.81452828319478 107.37952798338341 114.05667092726523 103.3358919522326 122.18918357804473 105.95952820749689 103.02021797571258 123.71770979809733 104.90352830763268 126.12452809921511 115.60752819128442 111.84952796907831 121.7821369228445 140.98702807239303 112.93178628047302 104.75898777843314 106.72809974619499 108.25667103852723 112.88952828379082 109.6055887687637 128.25667078421407 111.20400969414909 105.04238560580251 106.66491292787737 113.63286169182865 129.00465621638827 124.49952790232111 113.97011639931468 144.63414309510122 104.3768009499417 116.59952790095871 133.64238495185441 112.74070482534366 118.13552817411828 139.24311759957206 122.9035280100863 116.55130523406797 122.03123548793501 107.70215971868318 115.24026868421112 241.80106412382531 120.34536124678064 114.40619460554528 108.87225542603811 126.57571909354024 106.85309973484172 98.658619233629636 115.0380488462562 103.76709581952629 101.12680098028588 103.28373883796395 114.04015315683293 97.687989859665748 102.68637042318549 112.64952813120294 124.49952850835842 115.33077825220036 96.359528326706169 98.393076713802941 98.932861657768854 102.31794936114265 99.34735440536987 105.6106394466476 122.27730589255633 110.0395282051127 106.15952832670617 108.84452819796014 110.64658692443916 119.54238550589376 135.41381408458844 96.340437417615263 98.106935730581455 114.53452809305597 105.44498287216072 111.1589030268203 108.92452819796014 115.62561533298484 104.9964032268684 103.53431091881619 112.44714733345346 110.18648473649223 110.63542564645097 105.91452829571176 97.902558626485316 111.32561511737151 112.84015317918468 130.56916068276934 97.634310935401828 120.79043702476648 102.48482239070906 103.54026904802021 96.114528326706179 99.120740443583415 97.040269067446914 111.58531574561661 108.35878752591927 97.305242608333288 108.64460511656213 110.91691966422528 108.07036154480386 106.61875894921782 116.4704959855797 108.55952829618859 100.07894008860713 112.52341079240932 105.651909188261 120.44352811308312 104.68286161765398 97.799528326706167 98.718575943483131 141.29667074243406 105.67095684363908 103.73286164944312 101.02952832670617 101.12352831764626 105.19952832048655 102.62036166003951 115.38339926983716 104.79083252007848 114.1315283438723 107.1680996725123 96.467710144887988 97.027528319076779 107.65152828855921 101.22210895033288 114.84595689472876 125.43952844877649 111.23552832670617 123.85786131035893 101.80275412738959 109.89607995054388 109.87452826710152 130.55092159848749 123.89476648552255 97.944355912913068 99.027528311447384 107.16979848034465 118.35215982534413 108.93952815027643 97.177789196271391 107.25952814232913 108.60786156268526 98.999528321937802 113.47266430698214 106.9228615988454 102.53798984132585 117.17232533470039 106.64675048005192 101.92711448098621 111.31888298314099 96.854073781251628 113.36952813120294 110.90407363549117 122.26619484336781 124.06777991916888 104.54364596149345 108.2752859602622 108.19518048610678 105.98286152016728 106.51024252088476 99.721149948327792 112.55593848530368 120.82730569652327 108.31952815027643 113.39498276812353 99.567385466157333 97.60452832432199 135.66169063320822 123.12333752354165 107.89958732521757 99.734011070528467 100.93552831716943 99.727528321937797 106.08286163222401 99.88213701406552 97.391194993372835 99.604528326706173 100.79043739323154 96.316194993372847 96.946403326706175 99.688417215595067 104.8777891589537 96.90978473451726 108.53798971294661 97.299528326706167 114.24536176782458 108.51702831091094 104.66423412911877 103.47952832074571 104.39152826185632 115.82452821941781 112.68648451258609 107.21619493128466 97.670956895864094 106.87894001287417 99.393814032136333 108.15605007827584 103.19286164732385 107.17095680049665 113.26619491053766 106.10452813597131 114.28134643916623 101.02352831907677 109.53952810736108 100.16771014055311 111.96352844496178 101.81024253067694 109.62752813215661 101.74006885886985 103.75508385841987 97.277306104483955 97.624528326706169 103.88952830683796 99.799528325451334 103.92952830763268 100.44426516630176 107.48589180701401 99.634310922962598 107.5328615042727 103.38589193706051 96.595361660039501 105.08452838392662 98.438658761488782 111.93460495682169 97.732861660039504 98.043972769384553 106.15890317508686 103.43952830048013 100.39476641740296 97.057861660039507 105.91005451575735 100.10952832670617 97.643528326706175 103.25508374980696 99.727528324798826 95.89552832670617 107.39630232336695 100.79000447517528 100.40541066562272 107.77619500767796 107.72366617552736 102.34300658757574 105.81619489800541 109.54195242174438 102.43524259539056 99.355083873431411 98.346750543630208 109.07680089792311 103.12809972973275 102.29635206209711 97.180480705387907 96.032861660039501 99.099528326706178 105.39119479270387 106.33952820749688 99.699528323996873 98.341836015345891 103.1095283219378 99.143972771150615 100.48648483289627 107.67952832670618 103.36922528303725 101.39619495840478 98.957592838220648 102.58286163917788 106.26952816696573 100.80861922062499 108.7795280660352 99.152306101834853 106.4341437039856 108.30861922279243 111.24460510702539 97.676451403629244 100.39163358986407 97.279528326706171 103.80297658612558 101.75628508217417 108.04752830572534 98.344528326706168 107.28648475307787 106.88524260390551 99.180297555641417 104.36952825041223 98.481009806421596 97.854073781251628 95.866194993372844 102.40452830048012 123.86316454078906 105.00323199155648 102.96875908126503 103.12680105397889 98.231786389684117 96.841836019013869 101.69364601163147 101.07952832670617 102.9126861844254 104.98238544231548 100.72452836485314 101.36159728235782 97.899528326706175 103.33841718314365 98.225454245567846 107.1222555084009 102.43952831716943 116.69952783842493 106.05952830763269 99.277306104483955 96.114528326706179 99.709205744522819 107.84468958626506 103.17952829571176 99.832861660039498 105.03152831907678 96.27286166003951 103.66316468275649 96.051252464637201 101.02680104530913 99.352306125676705 104.75605004925097 100.69286165686059 116.66112562261401 102.29238541847361 104.2959568879168 98.888717515895365 102.22004115944559 97.299528322371287 101.36952821226525 98.317710140011243 97.841194988405789 101.27952831716942 98.854528317169425 102.16875901157344 101.08752832098412 101.96771013838567 96.119528326706174 96.835891963069813 104.56909354150596 103.60693571645294 116.15952831716943 100.59152831907677 99.722108963791996 99.947528320984134 97.534528326706166 101.22752832670618 108.97571859626721 95.594528326706168 95.179528326706176 101.70952828379083 100.61857592985922 101.37667117703707 96.996750548928389 97.184528326706172 101.19452830644059 122.72809938232282 102.34752832670617 98.506671183849022 113.34952822308578 96.824528326706172 100.45452832670617 95.786194993372845 99.128099755277603 104.21381403190928 97.513814040991889 102.18213702235835 115.04689656706262 95.876451403629247 98.864912932462346 105.84238533559478 101.28918347610023 100.21857593894183 104.38213700991912 105.99212091223451 99.649528326706175 101.91952828617501 97.11619499138601 101.17952832670618 96.718883165415846 99.372501299679143 100.2495283219378 144.15452878446985 102.10861920978778 102.80429022295313 103.35369496357052 99.149528323725946 100.9595283219378 101.2900044995848 105.24824625341626 101.42680104892153 95.839528326706173 95.875718802896643 98.947804188775137 96.095824623002471 100.27305772549811 100.13286164169962 100.91202832173911 100.78740711169503 97.737366164544014 96.928099753006947 96.509528326706175 99.213814036450586 97.172861660039501 101.29119499337284 100.46849383572622 98.00952831955361 98.635242609014483 98.294528326706171 98.41063943649273 100.22655534728945 98.555938580671111 96.371942119809617 97.892861658450045 116.09476634928336 100.95114121916468 104.35605005339738 101.42809975073629 99.807528319076781 104.11771013621822 103.74752832289147 100.44801317519102 99.209205739139179 97.164528326706176 99.420361656065865 100.20407377854232 100.19286163063455 101.95890332372593 102.38841719672025 101.9745283219378 108.7471472880404 97.596194993372833 99.856050065836612 97.132861660039509 100.42286164732384 97.273814038267105 100.00407377258186 98.22847568508854 104.39689672172099 98.411649537021191 96.587028326706175 97.044528326706171 98.106194993372839 99.204290222385467 97.434528326706172 99.185891963069807 102.36039788363074 98.779528326706171 102.74452829332758 98.754073776916741 95.754528326706179 105.61952831001688 99.931346499854584 96.695180500619216 101.9276533207457 99.437459351323326 96.095682172860023 99.049528314157826 96.110639437817284 100.30369497350462 98.394766419105949 96.12752832670617 97.182286945751557 96.556671183849033 98.686194985425558 96.724528326706178 99.394528326706165 97.699528326706172 97.659528321937799 100.12452832471935 95.676801053978892 99.221267457140954 97.626801049644016 98.41491293108686 99.247147369783917 97.530297557475407 102.23589194356283 100.95452832670617 96.49498286782584 99.349528324057076 97.004073781251634 97.507528322891474 99.070956886781474 97.403528315262079 106.12952827544618 97.222255599433453 95.623770750948594 96.445361660039509 98.472605245656624 99.291194987412368 112.17452815385271 99.264528317169436 98.447147374325226 95.539528326706176 95.960639437817278 99.396403326706178 97.11857594575379 96.823212537232493 96.195528326706167 100.24536164811857 96.693467720645572 96.462028326706175 98.24595689643175 97.403528324321982 96.791194993372841 98.234528326706169 99.410339127206996 97.64055396650916 96.206194993372833 97.949528326706172 99.325615283227904 104.4900045149117 101.25452831478525 96.36619499048291 102.80905210898214 95.810054642495643 96.579528325343773 99.395824623002468 97.166194993372841 95.741463810577144 96.089528326706173 99.091836008009935 95.657861660039501 97.344689617028749 96.408619235797076 97.028940091412053 96.8473544136627 98.427653314785246 98.274528325381624 99.944528317169429 101.21381402055601 96.74595689813475 97.732861660039504 98.860242605608505 101.31452831716943 97.709528326706177 98.699528326706172 99.428099750736294 96.270496065565283 97.043645973764995 98.074528326706172 101.59043738076876 95.476801053978903 98.074528326706172 97.661690486290837 97.582137022358353 95.756671183849022 99.648013157490254 98.528099753006941 98.413164688175101 96.747147374325223 98.874528312401054 97.253374480552324 115.69043716619203 97.323337850515699 99.121267457140959 99.722861648913309 101.823666241298 95.719528326706168 100.93881402055601 97.523337845974396 97.469528317169434 97.035528326706171 97.782861658052681 96.277906705084547 95.829963109314861 95.973814040991883 98.045361660039504 96.182861660039507 99.82452831478524 96.214912942090791 95.958502685680529 97.078099755277606 97.821750538332012 98.218575936671186 97.02286166003951 95.567710144887997 97.107636432236788 98.106424874319643 241.80106412382531 97.131528326706174 99.141194993372835 96.984528326706169 97.509528325116719 97.80905213622998 98.232861660039504 97.931107274074591 96.765317797880712 107.21452823133875 104.23702832670617 98.874528323353417 97.476801053978903 99.5268010539789 97.02619499337284 104.02952832670617 97.317028325514073 106.0418359135595 99.185242648750915 95.624528326706169 96.008223978880082 97.514528317169436 111.19015315087248 96.028560584770688 97.086014813192662 96.417710144887991 96.504073781251634 97.875718802896643 96.672255599433441 100.03762356480141 95.88213702235835 99.136194987015017 96.777306104483955 96.713814040991892 95.325454252632099 96.834528326706177 96.432861660039507 98.13952832670617 96.445361660039509 96.286194993372845 96.951909279087118 96.018575945753796 97.214528326706173 96.878694985425554 95.752469503176755 96.177306104483947 96.693814040991882 96.524528326706175 96.65605006583661 95.431346508524356 96.791528326706171 96.787763620823824 95.854073781251628 96.630778326706178 96.479528326706173 97.244982863490947 95.881009808187656 96.414912942090794 97.799528326706167 98.694982867825829 97.142385469563322 95.467385469563311 97.917710131883339 96.734143711321551 95.380297557475402 96.5028616600395 98.713814040991892 97.081009804655523 95.463528326706168 96.649528326706175 95.380480707658549 95.678838671533754 96.044982872160716 96.408619235797076 101.92915792498817 95.947354413662694 96.631786391222306 95.987989865167705 96.303374480552321 100.41952831478524 95.766194993372835 96.632861660039509 95.803876152793123 95.904073781251626 95.894528326706165 96.132861660039509 104.23452831240105 96.972501299679152 95.656671183849028 100.95667117476641 95.519528326706165 95.184528326706172 95.778694993372838 96.703374480552327 95.753694993372847 96.706845399876897 96.011066788244634 97.043118070295918 104.09952834101129 95.554073781251631 95.857104084281929 95.399528326706175 96.347528326706168 96.103694993372841 96.149528326706175 96.505083882261729 95.853099755277597 96.061597292223411 96.980480705387905 97.969093544097476 97.071528326706172 95.737028326706167 96.19238546956332 95.630083882261729 95.458619235797073 96.341463810577139 95.766194993372835 95.29518050061921 98.828694977478264 97.704290231468079 96.279528326706171 96.53881404099188 95.487528326706169 95.199528326706172 95.712861660039508 95.287528326706166 96.620361660039507 96.638658761488784 95.66491294209078 96.167270262190044 95.4280997552776 95.577789196271397 95.414343141520988 96.517710144887985 96.599528326706178 95.317175385529708 95.827528326706172 95.664528326706176 95.659528326706166 96.479528321937806 95.408619235797076 96.25190927908713 95.55138017855802 96.231528326706169 96.042385469563314 95.429528326706176 95.364745718010525 96.072255599433447 95.524528326706175 95.969093544097476 95.64780418877514 96.147354413662697 95.651380178558028 95.27831620549405 95.637623564801402 97.104528326706173 95.780173487996493 95.481346508524354 95.947528326706177 96.434011085326858 96.825334776396346 95.727528326706164 95.712028326706175 95.821750548928392 98.585242612420458 96.203528326706177 97.866194993372844 95.779528326706171 95.813814040991886 96.009528326706175 95.209528326706163 95.307528326706176 95.818575945753793 95.393076713802941 95.682861660039507 95.395361660039498 95.614528326706164 95.609205746061008 95.879528326706179 95.538658761488776 95.382385469563317 95.365045568085478 95.917710144887991 95.240704797294399 97.644528326706165 95.404290231468082 95.208099755277601 95.377653326706167 96.651909279087121 95.529528326706171 95.286625100899727 95.207861660039498 95.675718802896654 95.286194993372845 95.189528326706167 241.80106412382531
leaf_weight=23 100 36 21 37 36 24 39 33 30 21 28 22 27 20 20 21 36 20 20 33 33 26 30 27 27 31 21 24 24 21 22 23 21 30 26 21 22 28 26 27 25 28 26 37 22 20 23 32 37 29 34 21 27 37 21 24 36 21 37 34 23 37 23 25 26 28 22 27 30 29 30 28 23 29 38 27 23 21 25 22 31 23 26 21 26 23 30 31 37 21 36 27 23 25 38 34 35 22 37 20 27 20 20 21 22 29 20 29 22 25 24 25 20 23 24 31 37 21 21 20 33 21 23 21 26 24 39 20 34 26 22 28 28 34 25 39 25 29 41 38 27 21 24 30 22 21 28 22 26 37 33 38 32 26 38 20 21 32 25 31 21 38 23 27 36 20 20 20 34 21 35 22 27 20 22 32 20 23 32 23 21 23 39 20 33 23 32 23 23 22 34 27 20 33 27 21 27 35 20 23 24 26 31 25 34 21 21 25 36 21 21 35 35 27 20 25 23 24 31 23 25 35 22 25 25 31 28 25 25 24 31 29 28 37 21 29 25 37 38 20 23 30 24 30 26 30 26 22 36 29 31 22 20 22 36 22 34 33 23 30 28 37 39 36 20 22 28 20 37 21 26 29 25 25 24 23 24 20 22 24 32 27 23 39 26 20 24 40 34 20 25 24 23 24 21 34 35 23 30 21 39 20 22 25 20 22 25 28 25 37 36 36 20 30 38 30 38 22 23 30 22 24 20 23 20 21 27 32 20 21 24 38 30 25 27 25 25 31 21 34 30 29 23 24 33 28 27 36 22 28 31 21 24 25 24 20 22 26 20 27 23 25 33 30 31 24 20 22 30 36 26 22 20 26 38 20 29 37 25 20 23 21 26 20 27 33 33 20 22 27 39 22 31 26 34 20 38 35 20 29 20 36 27 22 20 25 20 27 20 31 31 20 30 25 30 33 29 22 36 23 30 26 28 28 37 39 22 20 22 36 20 20 39 25 22 20 22 23 27 20 25 31 25 20 25 21 20 20 20 21 35 36 20 20 21 25 28 26 28 20 30 21 21 21 23 38 39 26 21 29 21 23 27 26 20 24 20 31 37 20 20 22 21 24 32 30 21 39 33 25 21 29 27 34 39 24 33 37 21 20 21 30 24 29 20 28 20 36 37 39 29 30 21 31 23 21 25 22 25 33 31 20 24 22 30 32 36 20 21 30 23 24 30 35 22 38 38 33 24 20 30 21 20 22 23 20 20 22 20 20 22 23 32 29 26 38 27 24 21 25 29 21 30 20 20 23 40 24 22 23 22 26 21 26 22 20 22 36 22 25 21 25 20 22 33 24 26 24 24 20 21 25 36 32 21 38 25 24 33 24 28 25 36 20 37 39 30 20 23 21 20 33 21 38 35 27 21 31 20 26 24 31 33 34 23 32 36 20 21 28 24 28 20 30 20 21 31 34 28 22 22 20 37 23 35 33 21 22 21 20 39 22 21 23 30 29 20 28 21 20 25 24 37 23 35 24 30 20 26 39 28 27 21 30 22 37 29 24 25 24 20 30 21 27 38 38 20 24 32 22 33 30 20 40 26 21 24 23 20 32 31 37 33 22 21 22 21 23 30 36 21 27 20 27 20 24 30 21 21 20 24 34 36 35 24 23 22 25 34 22 32 20 22 27 26 31 22 21 28 22 26 26 30 21 27 25 28 21 29 33 33 27 23 31 26 26 20 24 24 23 22 20 21 20 37 21 21 25 20 24 26 24 41 26 39 20 22 33 25 25 24 20 36 28 29 21 23 25 24 28 36 22 31 21 23 24 21 20 28 25 20 30 25 24 23 26 31 28 23 27 22 20 34 25 20 20 20 22 21 27 25 21 20 23 22 28 23 29 23 27 33 21 20 31 22 25 29 31 25 24 36 21 25 21 20 21 20 20 25 21 31 24 24 20 31 20 23 35 29 22 34 20 21 35 32 21 20 31 36 21 30 20 70
leaf_count=23 100 36 21 37 36 24 39 33 30 21 28 22 27 20 20 21 36 20 20 33 33 26 30 27 27 31 21 24 24 21 22 23 21 30 26 21 22 28 26 27 25 28 26 37 22 20 23 32 37 29 34 21 27 37 21 24 36 21 37 34 23 37 23 25 26 28 22 27 30 29 30 28 23 29 38 27 23 21 25 22 31 23 26 21 26 23 30 31 37 21 36 27 23 25 38 34 35 22 37 20 27 20 20 21 22 29 20 29 22 25 24 25 20 23 24 31 37 21 21 20 33 21 23 21 26 24 39 20 34 26 22 28 28 34 25 39 25 29 41 38 27 21 24 30 22 21 28 22 26 37 33 38 32 26 38 20 21 32 25 31 21 38 23 27 36 20 20 20 34 21 35 22 27 20 22 32 20 23 32 23 21 23 39 20 33 23 32 23 23 22 34 27 20 33 27 21 27 35 20 23 24 26 31 25 34 21 21 25 36 21 21 35 35 27 20 25 23 24 31 23 25 35 22 25 25 31 28 25 25 24 31 29 28 37 21 29 25 37 38 20 23 30 24 30 26 30 26 22 36 29 31 22 20 22 36 22 34 33 23 30 28 37 39 36 20 22 28 20 37 21 26 29 25 25 24 23 24 20 22 24 32 27 23 39 26 20 24 40 34 20 25 24 23 24 21 34 35 23 30 21 39 20 22 25 20 22 25 28 25 37 36 36 20 30 38 30 38 22 23 30 22 24 20 23 20 21 27 32 20 21 24 38 30 25 27 25 25 31 21 34 30 29 23 24 33 28 27 36 22 28 31 21 24 25 24 20 22 26 20 27 23 25 33 30 31 24 20 22 30 36 26 22 20 26 38 20 29 37 25 20 23 21 26 20 27 33 33 20 22 27 39 22 31 26 34 20 38 35 20 29 20 36 27 22 20 25 20 27 20 31 31 20 30 25 30 33 29 22 36 23 30 26 28 28 37 39 22 20 22 36 20 20 39 25 22 20 22 23 27 20 25 31 25 20 25 21 20 20 20 21 35 36 20 20 21 25 28 26 28 20 30 21 21 21 23 38 39 26 21 29 21 23 27 26 20 24 20 31 37 20 20 22 21 24 32 30 21 39 33 25 21 29 27 34 39 24 33 37 21 20 21 30 24 29 20 28 20 36 37 39 29 30 21 31 23 21 25 22 25 33 31 20 24 22 30 32 36 20 21 30 23 24 30 35 22 38 38 33 24 20 30 21 20 22 23 20 20 22 20 20 22 23 32 29 26 38 27 24 21 25 29 21 30 20 20 23 40 24 22 23 22 26 21 26 22 20 22 36 22 25 21 25 20 22 33 24 26 24 24 20 21 25 36 32 21 38 25 24 33 24 28 25 36 20 37 39 30 20 23 21 20 33 21 38 35 27 21 31 20 26 24 31 33 34 23 32 36 20 21 28 24 28 20 30 20 21 31 34 28 22 22 20 37 23 35 33 21 22 21 20 39 22 21 23 30 29 20 28 21 20 25 24 37 23 35 24 30 20 26 39 28 27 21 30 22 37 29 24 25 24 20 30 21 27 38 38 20 24 32 22 33 30 20 40 26 21 24 23 20 32 31 37 33 22 21 22 21 23 30 36 21 27 20 27 20 24 30 21 21 20 24 34 36 35 24 23 22 25 34 22 32 20 22 27 26 31 22 21 28 22 26 26 30 21 27 25 28 21 29 33 33 27 23 31 26 26 20 24 24 23 22 20 21 20 37 21 21 25 20 24 26 24 41 26 39 20 22 33 25 25 24 20 36 28 29 21 23 25 24 28 36 22 31 21 23 24 21 20 28 25 20 30 25 24 23 26 31 28 23 27 22 20 34 25 20 20 20 22 21 27 25 21 20 23 22 28 23 29 23 27 33 21 20 31 22 25 29 31 25 24 36 21 25 21 20 21 20 20 25 21 31 24 24 20 31 20 23 35 29 22 34 20 21 35 32 21 20 31 36 21 30 20 70
internal_value=105.555 154.212 103.71 215.722 114.277 193.275 99.9226 113.385 121.717 120.364 128.647 143.142 163.985 233.711 212.223 123.794 110.937 109.017 113.463 98.3469 115.241 118.72 121.985 105.092 127.179 130.008 126.874 140.125 107.046 104.733 149.9 143.65 119.642 126.294 130.222 133.712 115.61 123.313 113.426 110.641 140.323 106.35 115.637 123.452 108.262 109.702 132.84 111.978 107.438 129.734 125.189 114.688 118.608 122.135 111.118 125.193 119.265 107.866 112.052 114.108 115.481 109.612 133.251 138.492 109.712 100.157 146.475 97.1653 123.189 116.224 116.431 117.002 119.878 117.393 114.332 106.562 134.85 100.625 107.095 129.442 113.842 101.709 112.204 117.024 114.727 113.254 103.29 101.212 115.935 108.663 111.773 114.606 105.303 111.291 103.346 103.764 108.803 113.409 113.256 126.329 111.34 114.218 117.838 105.1 109.203 111.119 113.369 110.705 114.031 107.574 116.75 107.513 119.421 129.816 136.58 107.439 113.612 116.085 108.952 116.433 117.366 118.838 99.7422 103.111 114.274 115.743 123.149 115.651 113.95 139.075 111.577 118.884 117.845 122.18 115.508 134.456 130.397 118.02 118.925 111.842 109.742 235.365 121.899 109.079 116.534 117.987 108.767 103.278 103.668 108.419 103.196 104.601 108.061 103.681 103.356 105.657 117.111 115.839 101.72 101.462 105.379 101.948 99.1418 111.849 116.705 115.991 102.391 114.964 115.604 118.047 134.362 98.0147 104.032 103.328 106.347 106.241 99.9414 120.575 108.786 103.403 105.622 111.882 102.757 103.689 103.022 104.577 108.753 125.1 101.119 115.683 107.408 103.899 96.4025 96.8934 102.057 105.601 103.523 101.565 102.442 116.162 112.788 110.708 112.181 102.172 104.481 105.548 106.465 124.406 98.8763 99.3881 101.519 144.366 101.244 101.172 101.86 104.428 104.36 105.109 106.232 110.872 104.972 107.928 99.5997 102.724 102.393 103.825 117.548 119.843 114.279 119.95 103.366 105.807 111.614 133.057 119.636 99.7211 99.3118 110.355 113.112 115.106 98.8423 103.306 112.45 100.032 105.765 107.628 107.042 107.689 110.639 106.298 107.646 99.1474 115.434 116.78 119.089 115.113 100.071 105.337 104.049 100.967 100.701 102.296 115.858 117.176 115.63 117.88 102.652 97.8627 132.737 130.805 101.117 103.594 102.063 100.865 103.146 104.05 98.8368 101.391 97.6233 97.2424 98.3671 100.621 98.1555 98.7056 104.613 101.058 113.229 111.951 101.663 99.7688 101.127 112.621 109.467 103.871 99.8744 103.098 102.538 103.418 102.857 104.741 116.088 102.031 117.445 97.8408 105.839 104.118 109.295 104.59 101.755 102.366 104.073 98.1265 98.4636 100.601 97.9865 103.801 101.614 104.062 103.11 104.443 100.57 100.396 100.058 100.315 101.883 100.7 99.7483 100.239 102.3 102.164 100.64 103.947 96.7744 99.6923 100.622 99.461 99.8882 105.315 100.686 102.97 104.515 105.205 105.255 102.473 107.384 101.771 101.869 98.5178 105.286 100.428 98.4032 98.6506 98.4254 99.1316 100.755 101.636 102.462 100.915 105.91 100.573 102.786 104.402 101.644 104.222 99.8289 102.322 102.846 103.646 105.407 102.457 103.733 105.782 108.656 96.7278 100.116 99.2967 100.597 104.575 105.825 99.7084 104.969 102.676 102.1 101.969 100.494 98.8349 96.6644 104.7 121.753 101.55 104.634 106.017 100.017 97.6338 101.142 102.076 101.255 103.325 102.946 103.457 99.7284 101.396 99.4319 104.991 101.51 114.607 100.908 102.163 97.2196 101.687 109.716 100.643 99.8211 101.841 98.0529 105.215 98.3143 103.162 101.041 102.037 102.462 115.021 103.919 100.404 101.238 100.685 99.5959 97.5404 97.9401 97.0011 103.364 98.5898 103.396 102.97 99.8739 97.249 98.5324 102.35 105.26 118.316 102.405 101.495 102.341 98.1274 99.3329 110.768 95.909 97.0531 99.6936 102.953 99.5499 98.3943 100.415 99.1895 120.858 101.067 100.643 111.91 98.4806 102.338 96.6738 100.152 102.207 98.9487 99.6884 113.785 95.8497 96.9263 102.148 103.202 98.4843 102.692 107.377 101.017 99.9464 99.0495 97.1293 98.4682 100.45 98.5086 142.427 103.939 104.392 101.703 100.951 102.448 103.379 103.983 103.07 96.52 96.8245 97.4006 97.4734 97.8433 101.08 99.3571 101.803 96.4255 97.0176 97.1533 97.0228 98.3357 99.834 99.2995 97.374 97.8252 96.9553 97.4137 101.154 97.5763 98.0707 95.7921 114.713 99.2673 102.203 102.959 100.977 102.575 101.853 99.3035 100.457 98.6025 98.9716 99.6667 98.9367 100.987 101.425 100.57 107.315 97.6079 98.5169 98.2563 100.316 98.147 98.6616 97.2541 103.618 97.9203 98.3542 98.9964 97.0397 97.739 96.998 97.4813 101.149 100.1 101.397 99.9144 97.0375 104.423 98.7141 97.9368 100.917 98.2726 97.5215 97.9893 97.5366 101.346 99.5878 96.3469 96.4908 97.6376 97.6343 97.3503 98.0595 96.6165 98.4956 99.035 97.0839 97.3624 97.7159 97.5224 100.372 97.9137 101.101 99.9045 95.7568 98.6479 98.0847 96.6704 97.4253 97.0507 107.195 95.8868 96.3592 96.8304 97.3815 98.2745 113.053 98.272 97.4551 95.858 96.6175 98.5306 97.0186 96.2102 97.1329 101.069 96.3837 96.8344 97.4061 98.2638 97.1255 97.3415 97.9745 98.5022 96.2601 96.9035 100.141 105.358 100.293 97.2689 101.863 96.273 97.4291 97.626 98.4204 96.4379 96.452 96.6507 97.4057 96.6086 97.2558 97.005 97.2426 97.7668 97.5805 98.9585 100.262 97.5543 96.8116 98.2099 100.433 97.6707 97.872 98.4212 96.9225 96.2731 98.7679 102.347 96.5286 97.0518 97.1366 96.6634 96.4148 98.534 98.7243 98.3614 97.6376 98.0573 96.7407 114.936 98.0678 99.9031 100.314 101.232 96.4945 100.318 96.7647 98.041 96.3995 96.5761 96.8178 96.1464 96.6944 96.8106 97.0492 99.0852 96.6353 96.5524 96.7069 96.8718 96.7009 97.106 96.2735 97.5589 97.5584 241.194 96.5135 98.4863 97.6645 98.053 98.4686 99.019 97.3862 96.0002 106.565 104.815 98.4222 98.1667 99.0799 96.827 103.402 96.9064 106.546 98.6117 95.9649 96.2437 96.7088 110.77 96.5195 96.6289 96.8662 97.0599 96.8448 97.26 99.4887 96.4368 98.7083 96.3679 97.2446 95.8373 96.2316 95.7305 97.6166 96.9555 96.3681 97.5032 96.608 96.6036 95.8125 96.2185 95.7865 95.9411 96.0782 95.7052 95.6392 95.8995 97.125 95.9942 96.2164 97.0771 96.1504 96.4934 95.9136 98.1561 98.1429 97.918 95.8591 97.4609 96.6251 96.0359 96.1011 98.2567 96.2801 95.9699 96.0259 95.8421 96.0424 95.5692 96.7088 102.276 96.4472 96.5841 96.3611 96.6888 100.837 96.4252 96.1995 96.3038 96.0156 96.3349 95.7165 103.837 97.2262 95.4936 100.572 95.5464 95.6717 95.8503 96.2595 96.1079 96.4004 96.3487 96.7615 103.726 95.8938 95.9941 95.7294 95.9357 95.6961 95.7971 96.2393 95.4618 96.3245 96.5283 97.674 96.8084 96.0838 96.1829 95.8678 95.7702 96.5542 96.0721 95.6372 98.5859 97.441 95.9719 96.3213 95.4759 95.6103 95.5142 95.6076 96.3773 96.3936 95.4626 95.9917 95.7538 95.8733 95.6118 96.7437 96.8555 95.6664 95.5705 95.3587 96.2105 96.0695 95.624 95.6972 95.8579 96.0355 95.7995 95.6781 95.6067 95.6173 95.7655 95.7729 95.4366 95.9091 95.4651 95.4241 95.3995 96.9044 95.6043 95.8319 95.7293 96.2934 96.6882 95.535 95.5171 95.6979 98.4142 96.0539 97.7044 95.604 95.6228 95.8315 95.3816 95.3181 95.9629 95.4995 95.5457 95.3475 95.4089 95.5156 95.9995 95.4235 95.3086 95.4458 96.0114 95.3162 97.557 95.2954 95.2728 95.3071 96.5825 95.5995 95.3341 95.2487 95.6245 95.2555 95.187 241.801
internal_weight=0 819 22399 271 5909 66 16490 5843 1327 1297 473 253 72 234 64 548 4516 3123 1171 12638 1393 855 485 3852 276 250 223 93 2439 1484 69 50 438 202 214 184 824 182 642 955 110 1952 341 121 1203 973 84 220 686 158 57 579 276 210 303 45 154 614 712 488 271 480 129 81 538 4991 49 7647 181 472 132 138 110 130 101 649 181 4146 322 45 196 1861 320 443 161 102 261 1623 396 258 134 98 124 46 1288 1186 136 76 65 131 220 127 220 238 227 167 125 96 67 224 362 98 42 80 160 58 216 338 342 422 354 263 2285 1050 222 176 63 149 236 48 68 200 177 62 115 85 46 242 216 63 54 45 110 67 138 116 100 749 696 63 633 368 99 886 833 170 124 106 1413 1320 93 1161 1591 149 317 281 1016 50 103 69 116 3618 129 269 88 92 890 44 53 555 163 135 689 445 406 223 63 64 694 49 93 307 4029 2020 95 102 82 613 138 79 61 100 80 230 353 237 203 48 1130 828 202 60 265 461 181 160 601 416 253 54 199 83 818 69 423 72 87 53 129 52 163 67 113 57 50 190 749 89 91 58 145 123 56 164 182 89 207 181 58 123 94 792 103 78 56 244 934 67 81 131 144 86 198 121 85 65 78 845 93 56 156 55 398 189 209 68 593 118 2488 1450 426 151 1038 646 142 244 122 86 96 101 183 52 49 60 878 90 160 125 116 73 95 93 46 274 63 43 45 62 196 165 88 701 581 106 475 200 134 43 160 124 230 338 823 715 190 170 525 403 116 128 69 59 1024 319 177 700 510 51 314 140 70 67 58 79 66 78 63 170 193 97 603 533 502 371 232 171 120 73 50 340 102 50 54 105 119 241 190 129 52 77 116 52 46 1940 150 143 69 144 72 158 53 185 144 43 55 99 1878 41 43 114 86 47 62 412 206 106 85 72 43 94 371 56 315 49 121 64 80 47 219 100 86 172 102 70 60 63 190 56 97 61 72 46 52 145 89 94 55 726 417 309 45 72 63 60 82 392 73 102 55 56 58 96 65 122 69 41 2009 99 51 90 143 57 77 40 51 258 188 46 74 47 994 100 70 128 81 77 1910 97 95 50 46 53 49 160 64 44 275 51 60 44 44 68 65 79 56 78 48 93 54 835 224 97 302 210 63 66 53 131 889 747 669 58 61 56 176 199 319 374 61 353 125 1813 43 93 65 44 45 69 47 76 91 170 129 70 86 55 70 48 58 107 46 44 86 59 58 88 60 159 108 63 269 81 135 159 55 51 133 47 50 42 55 67 86 78 277 127 89 49 51 989 699 42 92 69 40 53 102 62 249 175 128 48 51 106 60 40 1763 62 74 392 62 133 45 1041 566 136 72 64 45 40 45 1019 251 90 68 430 66 46 316 109 61 56 150 124 208 76 132 50 43 41 63 219 52 566 186 151 48 60 358 246 81 55 103 145 109 55 84 56 58 73 83 48 45 132 40 97 61 140 57 42 330 111 62 108 85 142 117 84 42 45 68 46 41 56 55 52 120 54 46 70 47 145 104 207 252 217 141 42 288 263 216 177 150 77 73 59 51 44 50 53 40 58 42 82 105 290 40 46 53 61 56 91 41 73 47 41 208 95 43 55 70 92 69 48 117 43 46 59 57 76 71 201 53 113 41 59 89 54 71 74 966 58 908 313 234 595 496 178 55 169 71 67 120 49 71 53 76 54 52 44 86 99 65 42 165 199 106 47 56 722 54 47 107 84 52 56 40 74 48 142 112 48 47 40 60 318 43 689 248 134 50 48 119 57 92 42 175 130 114 58 148 42 78 114 52 80 47 45 108 84 82 58 53 51 154 44 41 58 55 441 74 355 161 54 51 46 51 153 80 49 43 50 136 86 164 64 40 45 131 48 50 63 42 84 124 50 45 194 94 61 57 76 41 83 71 47 49 53 79 74 61 41 46 41 45 73 50 145 86 41 52 52 125 75 56 40 50 55 54 42 144 40 122 101 66 41 49 55 61 44 50 40 170
internal_count=23218 819 22399 271 5909 66 16490 5843 1327 1297 473 253 72 234 64 548 4516 3123 1171 12638 1393 855 485 3852 276 250 223 93 2439 1484 69 50 438 202 214 184 824 182 642 955 110 1952 341 121 1203 973 84 220 686 158 57 579 276 210 303 45 154 614 712 488 271 480 129 81 538 4991 49 7647 181 472 132 138 110 130 101 649 181 4146 322 45 196 1861 320 443 161 102 261 1623 396 258 134 98 124 46 1288 1186 136 76 65 131 220 127 220 238 227 167 125 96 67 224 362 98 42 80 160 58 216 338 342 422 354 263 2285 1050 222 176 63 149 236 48 68 200 177 62 115 85 46 242 216 63 54 45 110 67 138 116 100 749 696 63 633 368 99 886 833 170 124 106 1413 1320 93 1161 1591 149 317 281 1016 50 103 69 116 3618 129 269 88 92 890 44 53 555 163 135 689 445 406 223 63 64 694 49 93 307 4029 2020 95 102 82 613 138 79 61 100 80 230 353 237 203 48 1130 828 202 60 265 461 181 160 601 416 253 54 199 83 818 69 423 72 87 53 129 52 163 67 113 57 50 190 749 89 91 58 145 123 56 164 182 89 207 181 58 123 94 792 103 78 56 244 934 67 81 131 144 86 198 121 85 65 78 845 93 56 156 55 398 189 209 68 593 118 2488 1450 426 151 1038 646 142 244 122 86 96 101 183 52 49 60 878 90 160 125 116 73 95 93 46 274 63 43 45 62 196 165 88 701 581 106 475 200 134 43 160 124 230 338 823 715 190 170 525 403 116 128 69 59 1024 319 177 700 510 51 314 140 70 67 58 79 66 78 63 170 193 97 603 533 502 371 232 171 120 73 50 340 102 50 54 105 119 241 190 129 52 77 116 52 46 1940 150 143 69 144 72 158 53 185 144 43 55 99 1878 41 43 114 86 47 62 412 206 106 85 72 43 94 371 56 315 49 121 64 80 47 219 100 86 172 102 70 60 63 190 56 97 61 72 46 52 145 89 94 55 726 417 309 45 72 63 60 82 392 73 102 55 56 58 96 65 122 69 41 2009 99 51 90 143 57 77 40 51 258 188 46 74 47 994 100 70 128 81 77 1910 97 95 50 46 53 49 160 64 44 275 51 60 44 44 68 65 79 56 78 48 93 54 835 224 97 302 210 63 66 53 131 889 747 669 58 61 56 176 199 319 374 61 353 125 1813 43 93 65 44 45 69 47 76 91 170 129 70 86 55 70 48 58 107 46 44 86 59 58 88 60 159 108 63 269 81 135 159 55 51 133 47 50 42 55 67 86 78 277 127 89 49 51 989 699 42 92 69 40 53 102 62 249 175 128 48 51 106 60 40 1763 62 74 392 62 133 45 1041 566 136 72 64 45 40 45 1019 251 90 68 430 66 46 316 109 61 56 150 124 208 76 132 50 43 41 63 219 52 566 186 151 48 60 358 246 81 55 103 145 109 55 84 56 58 73 83 48 45 132 40 97 61 140 57 42 330 111 62 108 85 142 117 84 42 45 68 46 41 56 55 52 120 54 46 70 47 145 104 207 252 217 141 42 288 263 216 177 150 77 73 59 51 44 50 53 40 58 42 82 105 290 40 46 53 61 56 91 41 73 47 41 208 95 43 55 70 92 69 48 117 43 46 59 57 76 71 201 53 113 41 59 89 54 71 74 966 58 908 313 234 595 496 178 55 169 71 67 120 49 71 53 76 54 52 44 86 99 65 42 165 199 106 47 56 722 54 47 107 84 52 56 40 74 48 142 112 48 47 40 60 318 43 689 248 134 50 48 119 57 92 42 175 130 114 58 148 42 78 114 52 80 47 45 108 84 82 58 53 51 154 44 41 58 55 441 74 355 161 54 51 46 51 153 80 49 43 50 136 86 164 64 40 45 131 48 50 63 42 84 124 50 45 194 94 61 57 76 41 83 71 47 49 53 79 74 61 41 46 41 45 73 50 145 86 41 52 52 125 75 56 40 50 55 54 42 144 40 122 101 66 41 49 55 61 44 50 40 170
is_linear=0
shrinkage=1


Tree=1
num_leaves=850
num_cat=0
split_feature=0 8 8 8 7 8 8 7 5 0 5 8 7 5 0 7 0 0 0 5 0 5 8 0 0 0 0 0 8 0 0 0 8 7 5 0 0 0 7 7 0 0 0 5 7 5 0 0 0 0 0 0 0 0 0 7 7 0 7 5 0 0 0 0 0 0 0 0 7 0 7 0 7 8 0 2 0 5 0 0 0 5 0 0 8 0 0 0 0 0 5 2 0 0 0 0 0 0 0 0 0 7 0 0 0 0 0 8 0 0 0 0 7 5 5 0 0 0 0 0 0 0 0 0 7 0 0 7 0 0 0 7 0 8 6 0 0 7 5 6 0 0 7 8 0 5 0 0 0 6 5 8 5 5 0 7 0 0 0 5 0 0 0 0 0 0 0 0 0 0 5 0 0 8 7 5 8 7 0 8 0 0 5 0 0 0 0 0 5 0 7 7 0 7 5 0 2 5 0 0 0 0 0 0 0 0 0 0 0 0 0 0 0 0 0 5 5 0 7 0 0 0 0 8 5 0 0 0 0 0 0 0 0 0 0 7 0 0 0 0 0 7 5 0 0 0 5 0 0 0 0 0 0 0 0 0 5 5 0 2 5 0 0 0 0 0 0 0 0 5 0 0 0 0 2 0 0 0 8 0 0 0 0 0 0 5 0 0 5 0 7 7 8 7 7 5 7 5 8 8 0 0 0 0 0 0 0 0 0 7 0 0 0 7 0 7 7 0 0 0 8 5 0 0 0 0 0 0 0 0 0 7 0 0 0 0 0 0 0 2 0 0 5 0 0 8 5 8 7 7 0 0 0 0 0 0 0 0 5 0 0 0 0 2 0 0 8 0 0 0 7 8 0 7 0 0 0 0 0 2 0 5 0 0 0 5 0 0 0 0 8 0 0 0 0 0 0 0 2 8 8 7 0 0 0 0 0 7 0 0 0 0 0 0 0 2 0 5 0 0 0 5 0 0 0 0 7 5 0 0 0 0 0 0 0 0 0 0 0 0 0 0 0 0 0 7 0 7 7 0 0 7 0 0 0 0 0 5 0 5 0 5 0 0 0 0 0 0 0 7 5 0 0 0 5 0 7 0 0 0 5 7 0 8 0 0 7 0 0 0 0 0 0 8 0 0 5 0 0 0 0 0 0 0 8 0 0 0 0 0 0 0 0 0 0 0 0 5 5 0 0 0 0 0 5 0 0 0 0 8 0 5 0 0 0 0 0 0 0 5 0 0 0 0 0 0 0 0 0 0 0 0 0 0 7 0 0 0 0 0 0 0 2 0 0 0 0 0 0 0 0 0 0 0 0 0 0 7 0 7 0 0 0 0 5 5 0 0 0 0 0 7 0 5 0 0 0 0 0 0 0 0 8 5 0 7 7 0 0 8 0 0 0 0 0 0 0 0 0 0 0 0 0 0 2 0 0 5 2 0 0 0 0 8 8 0 0 0 0 0 7 5 0 0 2 0 0 0 0 0 0 0 0 0 2 8 5 0 0 0 0 7 0 8 7 0 0 0 0 0 7 0 0 0 5 0 0 5 0 0 0 0 0 7 0 0 0 0 0 0 0 0 0 0 0 0 0 0 0 0 8 0 0 0 8 0 0 5 0 0 5 0 0 2 7 5 0 0 5 5 5 5 0 0 0 0 0 0 0 0 0 0 0 0 0 0 0 0 0 0 5 0 0 0 0 0 0 5 0 0 0 0 5 0 0 0 0 0 0 0 0 0 0 0 0 0 0 0 0 0 0 0 8 7 0 2 8 0 0 0 0 0 0 0 0 7 0 0 0 0 0 0 0 7 0 5 0 0 0 0 5 0 0 0 5 0 5 0 5 0 0 0 0 0 0 0 0 0 5 0 0 0 0 0 7 0 5 0 0 0 0 0 0 5 2 0 7 7 0 0 0 0 5 8 8 0 0 0 0
split_gain=7.42516e+07 1.45537e+07 1.4122e+07 2.15914e+07 1.19801e+07 1.08575e+07 6.43873e+07 1.08368e+07 5.04615e+06 4.94784e+06 4.90469e+06 4.87195e+06 4.014e+06 9.25872e+06 5.02254e+06 3.36561e+06 3.24089e+06 3.89306e+06 2.63638e+06 2.38038e+06 2.35749e+06 2.35307e+06 2.16118e+06 1.9478e+06 1.80704e+06 1.76204e+06 4.23746e+06 1.97307e+06 1.70321e+06 1.63278e+06 1.49457e+06 1.48037e+06 1.37723e+06 1.60023e+06 1.27877e+06 1.23355e+06 1.28734e+06 1.64207e+06 2.85626e+06 1.18968e+06 1.12402e+06 1.0902e+06 1.07858e+06 1.30584e+06 1.26734e+06 973568 969514 926226 814869 761470 2.84214e+06 694480 939536 1.58397e+06 1.26011e+06 835091 804897 672768 631425 1.58736e+06 754602 680155 631120 3.48153e+06 1.27978e+06 1.41948e+06 1.10717e+06 2.48069e+06 544340 541346 520076 898689 502764 1.07893e+06 496893 496393 459922 441759 435494 938418 1.3476e+06 412816 404445 978815 391383 562990 567101 390570 1.33109e+06 414836 700201 385619 445228 549293 1.78994e+06 378733 363006 1.06091e+06 344634 471351 394313 333363 329558 581809 339766 327758 312904 311994 460558 398474 310061 301729 276497 270316 268164 295701 557646 266386 261804 637864 260259 441072 258876 257711 250405 246960 239208 236954 233158 225195 217786 208644 269491 204646 233603 204246 201587 371248 200052 199566 191623 220992 536838 185546 175774 172704 167003 408406 163375 155320 150860 150282 142051 137584 137061 135989 128254 126356 126101 133070 124500 121451 117401 144879 251939 117220 117110 144769 117028 114691 109796 108189 104682 104664 124291 104434 103193 101638 100496 99035.2 98617.7 97581.8 96379.3 93910.2 219609 93569.7 174578 92509 90118.8 150028 89867.4 103172 87015.6 82973.3 78236.1 77259.6 76570.2 76434.1 74467.4 73347.2 73140.6 72922.9 69064.8 68768 66678.5 63016.2 62412.9 58904.4 80609.9 57771.4 56727.7 134149 56074.5 55337.6 53983.7 53513.4 52187.7 51957.2 54256.4 53423.4 51346.3 50663.3 48575.5 47869.9 47539.8 46738 46556.9 46404 46323.3 66158.3 76093.6 46049.5 99101.3 89376.8 45883.4 45581.8 45159.5 47529.2 45136.1 44694.7 57049.7 43114.9 42900.4 42536 93240.6 42510.1 114423 309909 93239.9 63295.4 42419.6 41994.4 58082.9 41979 89024.5 41267.7 40123 39327.9 39198.7 38289.1 38228.5 37813.4 37715 37541.1 36816.3 104577 35565.3 35498.3 49777 35167 39540.5 35020.4 114246 87842.1 95315.9 33511.6 33157.1 53793.9 32557.3 32038.5 31389 31236.4 30201.7 48234.1 29737.2 29678.2 30446.4 38656.4 29521.2 28946.9 27779.8 42667.9 26289.2 45406.6 27598.7 25987.1 25964.9 94121.6 27529.3 60424.8 25670.6 31880.4 25664 30311.7 25482.1 27077.7 37435.2 25456.2 25094.7 28888.6 24932.6 24818.9 24057.7 31402.7 23664.1 25092.9 30619.1 23568.4 67835 23276.6 23222.5 23068.5 28709 22723.5 40174.8 33552.4 22298.1 72655.9 22234.8 21455 21068.3 20846.4 25772.6 20725.6 20366.2 20156.9 19167.1 19111 21485 18732.5 19937.6 39076.9 33869.4 18595 18575 29411.6 42659 18605.9 22085.3 39434.9 22058.4 18423.9 18356 18245.5 55806.3 22667.2 18166 17946.4 17924.4 37059.1 17842.3 17808.7 17682.1 17488.7 17432.1 17423.1 17013.9 16532.8 16436.9 82814.3 16306.8 18070.6 28750.5 16060.6 32927.9 25433.7 15895.7 15845.4 51649.5 20864.5 30481.5 15757.9 15736.2 15423.5 75540.1 21889.8 15333.5 101645 15331.2 15038.7 16570 15025.9 14791 14472.7 14464.2 14106.7 13910.8 36143.5 19431.3 13686.8 24215.1 13638.1 13322.9 13222.5 13339.3 12710.5 12675.3 12612 12338.8 12054.3 11891.3 11700.5 11496.8 11368.4 11167.7 12130.1 11014.2 11007.7 10826.3 10752.2 10624.8 10248 10128.3 12611.8 9840.89 9792.41 9752.96 9750.9 9710.2 9579.6 21091.5 79557.6 9510.8 9469.85 9335.95 19488.2 20566.7 9242.72 9091.98 29718.4 9026.06 8765.63 8750.69 10180.4 11400 8704.71 11346.8 8580.36 13662.3 8484.3 8276.75 9432.74 9807.2 8243.04 8108.44 8078.02 20578.4 8022.38 7955.6 7849.52 7765.85 7737.62 7639.59 6932.07 6931.95 6929.4 18303.2 12613.5 6906.2 6865.37 6811.34 6774.29 6724.66 24526.4 6705.07 16262.8 6607.3 6522.57 6326.32 6295.83 6149.43 6099.86 5971.25 12398.5 6952.24 5949.86 5753.38 5681.88 5614.87 5451.99 5432.01 5423.94 5420.24 5404.55 5265.49 5652.75 5254.35 5204.51 5024.57 4909.89 4834.54 4781.01 4748.21 4636.24 4629.13 4623.26 4539.98 19498.6 4428.8 6902.02 5715.42 4401.38 4354.29 4327.68 4264.83 4216.66 18800.8 13148.8 11741.1 5508.27 4206.33 4075.45 9134.99 4071.61 4067.11 4058.12 20988.7 4527.29 8265.69 4779.13 4047.46 5912.76 4042.29 4036.56 3921.79 3892.52 3835.78 9086.36 3820.38 3708.75 3667.51 3647.96 10378.6 3635 3592.24 3587.31 6463.52 3586.46 3568.01 3540.74 3520.06 3503.2 3500.17 3472.63 3454.87 3430.52 10391.1 3405.41 3401.56 5780.16 8367.16 3366.32 5235.76 7482.42 3561.9 3289.14 5283.75 3284.38 3174.15 3108.32 3092.66 3064.46 3037.74 3021.9 6024.22 2995.99 2988.9 4922.51 2962.15 2932.22 2901.8 10828.1 3832.66 2893.14 2825.91 2828.08 2815.04 3127.14 2814.32 4681.79 2743.09 5531.66 2735.16 3394.22 2584.45 2580.09 2526.57 2517.21 6124.86 2485.71 8026.73 2483.25 5258.33 3828.97 3520.68 3308.5 2464.39 2440.28 2272.86 2981.56 2195.66 2190.91 2146.19 2113.42 2773.24 2067.21 2051.67 5783.99 3487.51 2011.93 1981.89 1977.69 1939.2 1889.3 2830.33 3484.41 2271.73 1830.03 1828.46 1819.28 1817.57 1755.94 1742.85 1717.69 3252.68 2688.23 1713.65 1711.54 1683.63 1668.75 1641.16 1610.6 3468.88 3092.26 1787.22 1570.79 1560.04 1555.86 3171.4 1533.33 1531.86 1520.66 1461.59 1417.76 2658.12 1374.92 1345.16 3026.83 1335.46 1286.49 1258.87 1253.75 1252.53 1251.85 1202.97 1198.31 1195.66 1188.59 1185.34 1172.72 1157.43 1153.97 1150.96 1148.04 1104.2 1085.13 1350.78 1054.01 1589.23 1052.59 1778.02 1042.07 1031.59 1030.99 1029.53 1004.27 991.318 927.426 917.49 916.67 1756.47 899.313 899.279 1302.22 892.114 1350.9 891.98 872.297 868.292 838.244 2294.15 1012.58 826.062 821.189 811.854 774.453 771.266 767.276 743.368 718.943 689.758 939.884 785.738 689.165 828.02 688.998 674.193 672.256 665.547 782.624 660.606 654.921 1773.78 1548.57 945.677 641.908 614.823 594.405 590.252 589.517 587.617 555.969 549.724 545.439 1551.07 536.732 534.052 529.018 695.977 525.817 520.747 483.537 479.273 467.632 450.922 435.479 423.936 422.36 417.271 957.395 414.221 405.928 404.189 399.421 862.076 675.377 437.109 397.672 396.737 395.83 381.997 366.795 574.609 365.703 361.527 356.57 351.491 348.185 322.714 318.787 532.191 318.513 299.467 295.544 275.955 265.655 263.451 590.931 467.138 257.948 255.934 250.186 595.949 249.058 247.422 241.773 434.03 227.642 223.249 592.401 221.106 210.318 190.521 351.796 407.319 190.067 190.011 186.768 168.9 166.993 164.421 158.024 150.422 150.313 1887.66 147.775 139.227 143.041 128.762 124.35 120.551 111.41 110.989 100.982 99.2199 98.691 83.164 79.2767 77.0042 67.5594 67.0553 65.9409 65.3908 63.7508 53.7944 53.2285 1500.65 50.656 45.0518 44.7676 40.7041 36.433 68.6675 36.0898 33.5507 30.9928 56.7902 47.1579 28.8431 27.9028 23.142 21.3702 14.0507 11.8146 6.63608 3.38874 1.45926 0.303475 0.183843
threshold=714.50000000000011 107.50000000000001 165.00000000000003 151.50000000000003 356.00000000000006 133.50000000000003 135.00000000000003 387.50000000000006 24.500000000000004 856.50000000000011 47.750000000000007 208.00000000000003 336.50000000000006 49.000000000000007 1388.5000000000002 205.50000000000003 834.50000000000011 937.50000000000011 993.50000000000011 63.750000000000007 1028.5000000000002 68.250000000000014 218.50000000000003 868.50000000000011 1259.5000000000002 661.50000000000011 674.50000000000011 634.50000000000011 92.500000000000014 803.50000000000011 1179.5000000000002 1902.0000000000002 84.500000000000014 203.00000000000003 125.50000000000001 725.50000000000011 868.50000000000011 943.50000000000011 268.50000000000006 205.50000000000003 1095.5000000000002 357.50000000000006 559.50000000000011 47.750000000000007 298.50000000000006 49.000000000000007 1007.5000000000001 680.50000000000011 604.50000000000011 1167.5000000000002 1087.5000000000002 1245.5000000000002 1134.5000000000002 1037.5000000000002 993.50000000000011 268.50000000000006 268.50000000000006 1167.5000000000002 386.50000000000006 69.500000000000014 1157.5000000000002 1124.5000000000002 969.50000000000011 943.50000000000011 1087.5000000000002 1114.5000000000002 921.50000000000011 900.50000000000011 429.50000000000006 582.50000000000011 352.50000000000006 760.50000000000011 336.50000000000006 126.00000000000001 1401.5000000000002 257.54000000000008 691.50000000000011 88.000000000000014 1037.5000000000002 1124.5000000000002 1070.5000000000002 20.500000000000004 1001.5000000000001 1044.5000000000002 83.000000000000014 1480.5000000000002 1523.5000000000002 1271.5000000000002 1259.5000000000002 1222.5000000000002 35.500000000000007 257.54000000000008 756.50000000000011 812.50000000000011 823.50000000000011 763.50000000000011 1457.5000000000002 1523.5000000000002 812.50000000000011 796.50000000000011 760.50000000000011 353.50000000000006 1044.5000000000002 1095.5000000000002 1060.5000000000002 749.50000000000011 860.50000000000011 139.50000000000003 921.50000000000011 883.50000000000011 815.50000000000011 500.50000000000006 450.50000000000006 32.500000000000007 44.500000000000007 860.50000000000011 883.50000000000011 1259.5000000000002 911.50000000000011 961.50000000000011 1142.5000000000002 1124.5000000000002 889.50000000000011 278.50000000000006 304.50000000000006 1480.5000000000002 830.50000000000011 398.50000000000006 969.50000000000011 1613.5000000000002 772.50000000000011 313.50000000000006 684.50000000000011 96.000000000000014 347.00000000000006 889.50000000000011 614.50000000000011 375.50000000000006 51.000000000000007 313.50000000000006 856.50000000000011 878.50000000000011 367.50000000000006 191.00000000000003 1703.5000000000002 53.000000000000007 927.50000000000011 961.50000000000011 614.50000000000011 347.00000000000006 137.50000000000003 145.00000000000003 60.750000000000007 54.500000000000007 976.50000000000011 382.00000000000006 815.50000000000011 1577.5000000000002 741.50000000000011 59.500000000000007 664.50000000000011 889.50000000000011 1060.5000000000002 1044.5000000000002 1013.5000000000001 544.50000000000011 664.50000000000011 677.50000000000011 763.50000000000011 807.50000000000011 46.900000000000006 792.50000000000011 933.50000000000011 39.500000000000007 316.50000000000006 32.500000000000007 165.00000000000003 318.00000000000006 738.50000000000011 168.50000000000003 1222.5000000000002 839.50000000000011 71.720000000000013 1281.5000000000002 1305.5000000000002 650.50000000000011 614.50000000000011 1157.5000000000002 40.250000000000007 1363.5000000000002 361.50000000000006 285.50000000000006 1703.5000000000002 279.50000000000006 40.250000000000007 1419.5000000000002 358.50000000000006 125.50000000000001 993.50000000000011 839.50000000000011 674.50000000000011 698.50000000000011 1052.5000000000002 843.50000000000011 927.50000000000011 781.50000000000011 865.50000000000011 927.50000000000011 900.50000000000011 1070.5000000000002 551.50000000000011 589.50000000000011 691.50000000000011 194.50000000000003 1157.5000000000002 33.500000000000007 39.500000000000007 1245.5000000000002 341.00000000000006 1234.5000000000002 177.50000000000003 763.50000000000011 745.50000000000011 96.000000000000014 47.750000000000007 461.50000000000006 969.50000000000011 614.50000000000011 1305.5000000000002 1377.0000000000002 1363.5000000000002 961.50000000000011 916.50000000000011 937.50000000000011 1044.5000000000002 54.500000000000007 579.50000000000011 687.50000000000011 1549.5000000000002 847.50000000000011 830.50000000000011 178.00000000000003 125.50000000000001 597.50000000000011 607.50000000000011 366.50000000000006 47.750000000000007 551.50000000000011 396.50000000000006 383.50000000000006 883.50000000000011 540.50000000000011 500.50000000000006 955.50000000000011 937.50000000000011 1401.5000000000002 125.50000000000001 83.000000000000014 916.50000000000011 595.00000000000011 44.500000000000007 1652.5000000000002 687.50000000000011 752.50000000000011 1652.5000000000002 1523.5000000000002 721.50000000000011 1652.5000000000002 1794.5000000000002 31.500000000000004 642.50000000000011 1305.5000000000002 1281.5000000000002 1377.0000000000002 204.74000000000004 245.50000000000003 800.50000000000011 756.50000000000011 165.00000000000003 943.50000000000011 900.50000000000011 834.50000000000011 352.50000000000006 370.50000000000006 781.50000000000011 59.500000000000007 563.50000000000011 508.50000000000006 47.750000000000007 772.50000000000011 382.00000000000006 417.50000000000006 19.500000000000004 147.50000000000003 341.00000000000006 44.500000000000007 29.000000000000004 35.500000000000007 48.500000000000007 57.500000000000007 1222.5000000000002 1259.5000000000002 430.50000000000006 455.50000000000006 563.50000000000011 582.50000000000011 629.50000000000011 772.50000000000011 401.50000000000006 361.50000000000006 366.50000000000006 536.50000000000011 544.50000000000011 367.50000000000006 788.50000000000011 42.000000000000007 138.50000000000003 618.50000000000011 646.50000000000011 749.50000000000011 122.50000000000001 69.500000000000014 674.50000000000011 796.50000000000011 777.50000000000011 763.50000000000011 677.50000000000011 657.50000000000011 622.50000000000011 525.50000000000011 1334.5000000000002 285.50000000000006 582.50000000000011 781.50000000000011 1377.0000000000002 325.50000000000006 330.50000000000006 525.50000000000011 512.50000000000011 556.00000000000011 788.50000000000011 768.50000000000011 59.500000000000007 309.50000000000006 343.50000000000006 3.5000000000000004 31.500000000000004 8.5000000000000018 80.000000000000014 76.000000000000014 238.50000000000003 664.50000000000011 582.50000000000011 551.50000000000011 607.50000000000011 435.50000000000006 424.50000000000006 1197.5000000000002 44.500000000000007 309.50000000000006 1439.5000000000002 661.50000000000011 568.50000000000011 595.00000000000011 969.50000000000011 1060.5000000000002 196.00000000000003 611.50000000000011 1044.5000000000002 1007.5000000000001 166.50000000000003 62.500000000000007 245.50000000000003 138.50000000000003 234.50000000000003 189.50000000000003 847.50000000000011 1007.5000000000001 1087.5000000000002 434.00000000000006 745.50000000000011 119.50000000000001 1105.5000000000002 559.50000000000011 540.50000000000011 39.500000000000007 843.50000000000011 815.50000000000011 760.50000000000011 435.50000000000006 131.50000000000003 444.50000000000006 597.50000000000011 374.50000000000006 906.50000000000011 238.50000000000003 698.50000000000011 706.50000000000011 434.00000000000006 92.500000000000014 84.500000000000014 298.50000000000006 873.50000000000011 638.50000000000011 622.50000000000011 657.50000000000011 735.50000000000011 302.50000000000006 803.50000000000011 749.50000000000011 391.50000000000006 548.50000000000011 638.50000000000011 900.50000000000011 512.50000000000011 130.00000000000003 604.50000000000011 59.500000000000007 234.50000000000003 520.50000000000011 819.50000000000011 98.000000000000014 296.50000000000006 309.50000000000006 788.50000000000011 1087.5000000000002 445.00000000000006 71.720000000000013 883.50000000000011 1142.5000000000002 987.50000000000011 961.50000000000011 597.50000000000011 921.50000000000011 366.50000000000006 401.50000000000006 435.50000000000006 383.50000000000006 800.50000000000011 851.50000000000011 777.50000000000011 1305.5000000000002 664.50000000000011 604.50000000000011 626.50000000000011 386.50000000000006 339.50000000000006 378.50000000000006 393.50000000000006 826.50000000000011 900.50000000000011 350.50000000000006 950.50000000000011 667.50000000000011 163.50000000000003 677.50000000000011 661.50000000000011 47.750000000000007 177.50000000000003 29.000000000000004 480.50000000000006 71.720000000000013 563.50000000000011 301.50000000000006 638.50000000000011 868.50000000000011 921.50000000000011 830.50000000000011 1401.5000000000002 135.00000000000003 69.500000000000014 768.50000000000011 391.50000000000006 430.50000000000006 83.000000000000014 638.50000000000011 166.50000000000003 600.50000000000011 258.50000000000006 424.50000000000006 47.750000000000007 166.50000000000003 189.50000000000003 23.000000000000004 120.50000000000001 604.50000000000011 17.500000000000004 993.50000000000011 401.50000000000006 488.50000000000006 830.50000000000011 654.50000000000011 680.50000000000011 59.500000000000007 339.50000000000006 348.50000000000006 39.500000000000007 169.50000000000003 352.50000000000006 273.50000000000006 607.50000000000011 1197.5000000000002 1077.5000000000002 1124.5000000000002 102.50000000000001 788.50000000000011 163.50000000000003 177.50000000000003 352.50000000000006 406.50000000000006 444.50000000000006 1208.5000000000002 419.50000000000006 687.50000000000011 1281.5000000000002 856.50000000000011 878.50000000000011 98.000000000000014 98.000000000000014 927.50000000000011 309.50000000000006 321.50000000000006 366.50000000000006 1523.5000000000002 125.50000000000001 516.50000000000011 540.50000000000011 480.50000000000006 461.50000000000006 151.50000000000003 1037.5000000000002 98.000000000000014 955.50000000000011 921.50000000000011 638.50000000000011 823.50000000000011 362.50000000000006 348.50000000000006 976.50000000000011 69.500000000000014 268.50000000000006 387.50000000000006 396.50000000000006 379.50000000000006 309.50000000000006 1457.5000000000002 1401.5000000000002 258.50000000000006 684.50000000000011 480.50000000000006 406.50000000000006 1222.5000000000002 1044.5000000000002 826.50000000000011 415.00000000000006 317.50000000000006 396.50000000000006 650.50000000000011 500.50000000000006 520.50000000000011 548.50000000000011 296.50000000000006 595.00000000000011 321.50000000000006 289.50000000000006 444.50000000000006 411.50000000000006 768.50000000000011 278.50000000000006 687.50000000000011 461.50000000000006 357.50000000000006 461.50000000000006 536.50000000000011 525.50000000000011 745.50000000000011 292.50000000000006 39.000000000000007 586.50000000000011 47.500000000000007 600.50000000000011 626.50000000000011 650.50000000000011 475.50000000000006 19.500000000000004 47.750000000000007 571.50000000000011 618.50000000000011 642.50000000000011 629.50000000000011 278.50000000000006 251.00000000000003 873.50000000000011 59.500000000000007 579.50000000000011 540.50000000000011 219.50000000000003 943.50000000000011 969.50000000000011 650.50000000000011 634.50000000000011 401.50000000000006 71.500000000000014 101.00000000000001 278.50000000000006 412.00000000000006 17.500000000000004 268.50000000000006 512.50000000000011 68.000000000000014 313.50000000000006 777.50000000000011 492.50000000000006 401.50000000000006 387.50000000000006 788.50000000000011 784.50000000000011 807.50000000000011 741.50000000000011 339.50000000000006 698.50000000000011 1208.5000000000002 234.50000000000003 667.50000000000011 358.50000000000006 548.50000000000011 551.50000000000011 69.500000000000014 505.00000000000006 800.50000000000011 508.50000000000006 646.50000000000011 654.50000000000011 18.500000000000004 27.500000000000004 466.50000000000006 684.50000000000011 812.50000000000011 234.50000000000003 238.50000000000003 52.500000000000007 39.500000000000007 366.50000000000006 435.50000000000006 595.00000000000011 626.50000000000011 313.50000000000006 253.50000000000003 234.50000000000003 788.50000000000011 661.50000000000011 664.50000000000011 738.50000000000011 94.500000000000014 130.00000000000003 15.000000000000002 59.500000000000007 208.50000000000003 430.50000000000006 249.50000000000003 819.50000000000011 67.500000000000014 657.50000000000011 91.500000000000014 461.00000000000006 325.50000000000006 263.50000000000006 177.50000000000003 126.50000000000001 611.50000000000011 365.00000000000006 1577.5000000000002 132.50000000000003 1613.5000000000002 57.000000000000007 169.50000000000003 126.50000000000001 49.000000000000007 435.50000000000006 411.50000000000006 475.50000000000006 150.50000000000003 670.50000000000011 88.500000000000014 597.50000000000011 738.50000000000011 1334.5000000000002 575.50000000000011 670.50000000000011 629.50000000000011 579.50000000000011 339.50000000000006 600.50000000000011 638.50000000000011 1480.5000000000002 1439.5000000000002 646.50000000000011 150.50000000000003 208.50000000000003 383.50000000000006 23.000000000000004 424.50000000000006 138.50000000000003 738.50000000000011 118.00000000000001 589.50000000000011 607.50000000000011 24.500000000000004 691.50000000000011 245.50000000000003 30.500000000000004 219.50000000000003 219.50000000000003 1.0000000180025095e-35 315.00000000000006 49.000000000000007 604.50000000000011 488.50000000000006 24.500000000000004 54.500000000000007 59.500000000000007 32.500000000000007 544.50000000000011 532.50000000000011 614.50000000000011 309.50000000000006 661.50000000000011 321.50000000000006 819.50000000000011 1419.5000000000002 150.50000000000003 597.50000000000011 582.50000000000011 933.50000000000011 883.50000000000011 500.50000000000006 391.50000000000006 343.50000000000006 370.50000000000006 826.50000000000011 51.000000000000007 638.50000000000011 370.50000000000006 626.50000000000011 424.50000000000006 450.50000000000006 480.50000000000006 41.250000000000007 150.50000000000003 138.50000000000003 157.50000000000003 189.50000000000003 99.500000000000014 492.50000000000006 419.50000000000006 219.50000000000003 183.50000000000003 729.50000000000011 352.50000000000006 1319.5000000000002 607.50000000000011 313.50000000000006 334.50000000000006 461.50000000000006 729.50000000000011 611.50000000000011 283.50000000000006 1523.5000000000002 933.50000000000011 258.50000000000006 313.50000000000006 258.50000000000006 6.5000000000000009 117.00000000000001 208.50000000000003 81.500000000000014 13.500000000000002 396.50000000000006 439.50000000000006 444.50000000000006 444.50000000000006 379.50000000000006 343.50000000000006 301.50000000000006 492.50000000000006 377.50000000000006 132.50000000000003 529.50000000000011 391.50000000000006 334.50000000000006 777.50000000000011 634.50000000000011 249.50000000000003 39.000000000000007 208.50000000000003 29.000000000000004 120.50000000000001 214.50000000000003 289.50000000000006 540.50000000000011 39.500000000000007 334.50000000000006 219.50000000000003 238.50000000000003 30.500000000000004 419.50000000000006 37.500000000000007 132.50000000000003 29.000000000000004 163.50000000000003 575.50000000000011 379.50000000000006 330.50000000000006 401.50000000000006 113.50000000000001 529.50000000000011 419.50000000000006 330.50000000000006 41.250000000000007 492.50000000000006 589.50000000000011 600.50000000000011 150.50000000000003 516.50000000000011 390.00000000000006 268.50000000000006 30.500000000000004 208.50000000000003 150.50000000000003 219.50000000000003 752.50000000000011 194.50000000000003 234.50000000000003 54.500000000000007 575.00000000000011 150.50000000000003 36.500000000000007 36.500000000000007 258.50000000000006 105.50000000000001 278.50000000000006 370.50000000000006 57.000000000000007 4.5000000000000009 3.5000000000000004 401.50000000000006 132.50000000000003 234.50000000000003 219.50000000000003
decision_type=2 2 2 2 2 2 2 2 2 2 2 2 2 2 2 2 2 2 2 2 2 2 2 2 2 2 2 2 2 2 2 2 2 2 2 2 2 2 2 2 2 2 2 2 2 2 2 2 2 2 2 2 2 2 2 2 2 2 2 2 2 2 2 2 2 2 2 2 2 2 2 2 2 2 2 2 2 2 2 2 2 2 2 2 2 2 2 2 2 2 2 2 2 2 2 2 2 2 2 2 2 2 2 2 2 2 2 2 2 2 2 2 2 2 2 2 2 2 2 2 2 2 2 2 2 2 2 2 2 2 2 2 2 2 2 2 2 2 2 2 2 2 2 2 2 2 2 2 2 2 2 2 2 2 2 2 2 2 2 2 2 2 2 2 2 2 2 2 2 2 2 2 2 2 2 2 2 2 2 2 2 2 2 2 2 2 2 2 2 2 2 2 2 2 2 2 2 2 2 2 2 2 2 2 2 2 2 2 2 2 2 2 2 2 2 2 2 2 2 2 2 2 2 2 2 2 2 2 2 2 2 2 2 2 2 2 2 2 2 2 2 2 2 2 2 2 2 2 2 2 2 2 2 2 2 2 2 2 2 2 2 2 2 2 2 2 2 2 2 2 2 2 2 2 2 2 2 2 2 2 2 2 2 2 2 2 2 2 2 2 2 2 2 2 2 2 2 2 2 2 2 2 2 2 2 2 2 2 2 2 2 2 2 2 2 2 2 2 2 2 2 2 2 2 2 2 2 2 2 2 2 2 2 2 2 2 2 2 2 2 2 2 2 2 2 2 2 2 2 2 2 2 2 2 2 2 2 2 2 2 2 2 2 2 2 2 2 2 2 2 2 2 2 2 2 2 2 2 2 2 2 2 2 2 2 2 2 2 2 2 2 2 2 2 2 2 2 2 2 2 2 2 2 2 2 2 2 2 2 2 2 2 2 2 2 2 2 2 2 2 2 2 2 2 2 2 2 2 2 2 2 2 2 2 2 2 2 2 2 2 2 2 2 2 2 2 2 2 2 2 2 2 2 2 2 2 2 2 2 2 2 2 2 2 2 2 2 2 2 2 2 2 2 2 2 2 2 2 2 2 2 2 2 2 2 2 2 2 2 2 2 2 2 2 2 2 2 2 2 2 2 2 2 2 2 2 2 2 2 2 2 2 2 2 2 2 2 2 2 2 2 2 2 2 2 2 2 2 2 2 2 2 2 2 2 2 2 2 2 2 2 2 2 2 2 2 2 2 2 2 2 2 2 2 2 2 2 2 2 2 2 2 2 2 2 2 2 2 2 2 2 2 2 2 2 2 2 2 2 2 2 2 2 2 2 2 2 2 2 2 2 2 2 2 2 2 2 2 2 2 2 2 2 2 2 2 2 2 2 2 2 2 2 2 2 2 2 2 2 2 2 2 2 2 2 2 2 2 2 2 2 2 2 2 2 2 2 2 2 2 2 2 2 2 2 2 2 2 2 2 2 2 2 2 2 2 2 2 2 2 2 2 2 2 2 2 2 2 2 2 2 2 2 2 2 2 2 2 2 2 2 2 2 2 2 2 2 2 2 2 2 2 2 2 2 2 2 2 2 2 2 2 2 2 2 2 2 2 2 2 2 2 2 2 2 2 2 2 2 2 2 2 2 2 2 2 2 2 2 2 2 2 2 2 2 2 2 2 2 2 2 2 2 2 2 2 2 2 2 2 2 2 2 2 2 2 2 2 2 2 2 2 2 2 2 2 2 2 2 2 2 2 2 2 2 2 2 2 2 2 2 2 2 2 2 2 2 2 2 2 2 2 2 2 2 2 2 2 2 2 2 2 2 2 2 2 2 2 2 2 2 2 2 2 2 2 2 2 2 2 2 2 2 2 2 2 2 2 2 2 2 2 2 2 2 2 2 2 2 2 2 2 2 2 2 2 2 2 2
